0.10064915,0.0892337,-0.26949704,0.33574495,0.09848834,-0.11962026,-0.059048172,-0.14026694
0.08797805,0.002343513,-0.30794317,0.13818099,0.07809314,-0.039030172,-0.009828247,-0.022321275
0.032388233,0.027481748,-0.17339261,-0.021776494,-0.0149959475,-0.030681182,-0.016578753,-0.029986748
0.046776168,-0.029972145,0.042496476,-0.025928108,0.021363303,0.033040956,-0.11439383,0.0019436318
0.060613938,0.03988138,-0.08172871,0.055315353,0.009431927,-0.049589664,-0.009674787,-0.075512506
0.022189323,-0.0057863193,-0.012013968,-0.015028447,-0.011377497,-0.017385436,-0.06485757,-0.076055825
0.06065784,0.025693933,0.22449486,0.0636727,0.012432705,-0.08445672,0.06085369,-0.12091203
0.12757826,0.021996748,-0.008033389,0.031552453,0.017855437,-0.17583814,0.092978925,-0.20288841
0.38956958,0.032508664,0.7192138,1.1526065,0.5513648,-0.8500964,0.9156283,-0.89845616
0.077040456,0.18841009,0.21872728,0.5455667,0.34603277,-0.45256817,0.5693283,-0.18306634
-0.3086715,0.13901833,-0.95219225,0.02299734,0.014277617,-0.15533164,-0.26130483,-0.064825326
0.24322273,-0.10202315,-0.17020056,-0.8000592,-0.02516717,0.3326155,-0.86020494,0.12165253
-0.12939176,0.01772724,0.061638515,-0.4596372,-0.06877907,0.134178,-0.93282753,0.12792629
-0.23758332,0.23353904,0.46954012,-0.20878449,-0.07976629,-0.08566408,-0.35148716,0.12811154
-0.16750468,-0.049489614,0.059622668,-0.3357621,-0.08114746,0.0077398107,-0.20666504,0.13534118
-7.480997e-05,-0.0322772,0.30887595,-0.5142244,-0.08773444,0.12928547,-0.43537864,0.061300047
0.083797194,-0.17930573,-0.18188228,-0.6504283,-0.046456326,0.06764268,-0.33435103,0.04987956
0.09147093,-0.11165785,-0.35734516,-1.0238835,-0.22085746,0.22684306,-0.5172316,0.16133763
0.16261579,-0.12528472,0.45714754,-0.27622646,-0.10050498,-0.053418286,-0.24742913,-0.37274742
0.17642954,-0.25281084,0.029811483,-0.5826603,-0.23659375,0.4501371,0.015234871,-0.37972054
0.43058908,0.011185888,0.35266992,-0.5724118,-0.105521426,0.30562952,-0.049503297,-0.3205238
0.12567523,0.037602097,0.3788099,-0.4079993,-0.07697866,0.24699706,-0.3143844,-0.08062845
0.114503995,-0.15787888,0.27827322,-0.36613622,-0.028554507,0.27525175,0.06385058,-0.03508319
0.19713965,-0.011177484,0.4256891,-0.5077346,-0.022090366,0.20138681,0.17060816,0.0010104394
0.080386594,-0.031640347,0.51666754,-0.39812928,0.0037275827,0.38466987,-0.088137604,0.16852124
0.15521157,-0.15902963,0.47661567,-0.67290825,-0.052948628,0.62315524,-0.1208434,0.031864136
-0.2484271,0.049634792,0.52516586,-0.7777544,-1.0171952,1.9893305,-1.0331227,-0.29047877
-0.14838868,-0.14240819,0.3653836,-0.76378626,-1.3926176,1.4857029,-0.5903279,-0.0959497
-0.1955462,-0.39762574,0.36114493,-0.61954015,-1.1996707,0.3576323,-0.028504254,-0.16040243
-0.2082386,-0.31622317,0.06502643,-0.32836694,-0.7305874,0.1546133,0.4943932,-0.12819503
-0.060653556,-0.08738838,-0.37269276,0.31245625,-0.48974773,0.1496074,0.57220536,0.042840894
0.09751513,-0.18081787,-0.56143606,0.39854917,-0.21872282,-0.30148378,-0.4111698,-0.38274387
0.17878877,0.05813068,-0.41151953,0.0204319,-0.06098635,-0.17989196,0.45842907,-0.15585707
-0.061727613,-0.2916233,0.28084862,0.11822495,0.09083254,0.7112184,-0.026331075,0.32853276
0.10734664,-0.60184485,0.7860305,0.11216414,0.10982237,0.82537156,1.2400376,0.07544136
0.16500586,-0.29090756,0.912397,1.5011405,0.56389165,0.5715865,3.0755274,0.29437137
0.11155833,0.2707773,-0.7225999,1.1415303,0.26147738,0.66259706,-0.46001804,-0.17765935
-0.19332507,-0.18831585,-0.73466825,0.94014406,0.21579047,0.28359184,-0.5695937,-0.079280704
-0.29976273,-0.12991035,-0.6367555,0.90176386,0.21116166,-0.034052007,-0.36622587,0.10056545
0.018661818,0.14122388,-0.54700077,0.76881385,0.24582279,0.42348552,-0.051113777,0.30555362
-0.015140326,0.090047956,-0.3541249,0.71155924,0.45313728,0.17187133,0.103376634,0.0327479
0.13693817,-0.2631009,-0.33549342,0.64255613,0.45770505,0.16200997,0.45832664,-0.01928251
0.32090735,-0.10076009,-0.6878974,0.7769801,0.49531978,-0.09182192,0.545139,-0.0123704495
0.53656775,-0.09491819,-0.5502335,0.6367204,1.2722262,-0.23090076,0.55623513,-0.22538155
0.61122316,-0.23275012,-0.5884561,-0.46257654,5.5734034,-0.3683951,0.8621024,-0.9166702
0.9279603,0.1817382,-0.327411,-1.4072105,9.499972,0.06353145,0.23545924,-0.3352256
0.97623175,-1.310492,0.2514865,-2.7515619,10.792711,0.8856577,-0.88805425,0.06006358
0.03989667,-0.88541955,0.9688785,-2.3057387,9.460768,1.0098097,1.3445226,0.60322976
0.27595118,0.0383492,1.4727007,-0.5147734,6.454933,0.69409305,0.86961174,0.22374313
0.99226975,0.46577853,1.0803733,1.1486161,4.1504784,-0.004596238,-0.7563258,0.2627329
0.6715144,-0.06089135,0.04908007,0.7702999,2.481494,0.28767693,-0.2341196,0.15487659
0.6710698,-0.7681572,-0.53437066,1.1413937,1.4748944,0.89463073,1.5030464,0.0059566563
0.2614463,-1.0925043,-0.27836674,1.4754688,0.6664998,0.97932625,4.0592866,0.424927
-0.19038254,0.08318349,-0.17286088,0.8848697,0.6732501,0.6251245,4.2371063,0.38248074
2.760011,2.8635783,-0.5030665,-0.6231715,0.9072154,-2.8414545,-1.6162184,-0.36185917
2.7186959,2.3776155,-0.62499744,-0.33537742,0.72123134,-2.7704976,-1.7186162,-0.6743526
2.8134098,2.3162863,-0.61954015,-0.5821603,0.7335778,-2.371347,-1.8885835,-1.0208018
2.765394,2.3740797,-0.39862442,-0.6310085,0.4175689,-2.0856693,-1.9008186,-1.195015
3.1277313,1.9304106,-0.29930204,-0.5939648,0.32513186,-2.093683,-1.6582917,-1.066327
3.492078,1.918807,-0.41230816,-0.4066184,0.4284325,-2.3263135,-1.5204885,-1.1176938
3.6948392,1.899773,-0.042079594,-0.03308196,0.42545176,-2.1182175,-1.8491397,-1.2384758
3.9938607,2.0444283,-0.2715247,0.21128416,0.33455053,-2.0604482,-2.2730422,-1.2103794
5.243306,2.275943,0.27654094,0.6972408,0.8546354,-2.3843875,-2.7614603,-0.9559104
5.144685,1.8579538,0.5634971,1.140859,2.3860075,-2.4643123,-3.0600986,-1.2053397
3.6271327,1.2873509,0.34536144,0.07660435,3.0263085,-1.1063563,0.19827345,-1.7739953
1.542317,0.38168603,-0.11474305,0.6101961,2.6199625,0.024873964,1.5208097,-1.5139452
0.87542826,0.11113113,-0.26912016,1.4120113,1.4040642,0.012460225,-1.3352236,-1.5260977
0.90638214,0.11708499,-0.26775908,1.7246803,0.5013583,-0.4159507,-2.601881,-1.1463945
0.8694573,-0.17559722,-0.31773484,1.5672936,0.66162795,-1.1375765,-1.6266046,-0.5842107
0.9678381,1.1487801,-0.29622525,1.6096017,1.2477754,-0.9989492,-0.030831525,-0.6950246
0.5669635,0.43665773,0.07089784,1.1043276,1.732416,-1.1959823,0.7060423,-0.7245334
0.35523185,-0.86591554,0.09892114,0.88624454,2.274563,-1.0143633,1.878594,-1.2772835
-0.010083208,-0.52525437,0.13908617,0.38315934,0.09918584,0.29055828,0.43504468,-0.13021435
0.04413691,-0.31960842,0.25229326,0.13706166,0.09372738,0.31937125,0.08619045,0.042350885
-0.008388838,-0.030762708,-0.06041941,0.110138156,-0.076365754,-0.042887166,0.1887824,-0.14666785
0.008202723,-0.13949671,0.0338568,-0.0054122335,0.005999984,0.18301694,-0.02719479,0.10008795
-0.14698194,0.033196654,0.0952993,0.12002158,-0.12738512,-0.017621243,0.30043527,0.03558898
-0.06975557,-0.25711644,-0.021911526,-0.012955372,-0.072407484,0.13373165,0.07464667,-0.04724727
0.0499906,-0.27286002,0.16824734,0.16791946,0.029556824,0.15937331,0.2083625,-0.04473129
0.089520596,-0.62147003,0.237182,0.38849458,0.060456686,0.45556438,0.56530875,-0.09143353
-0.61486256,-1.6806896,0.48275343,0.8790456,-0.7825995,0.84788126,1.496703,-0.3304497
-0.13963756,-1.3276464,-0.017292792,1.0285329,-0.5733983,0.6609368,0.9645374,-0.043870512
-0.39162073,-0.3942456,0.19954443,0.15074058,-0.37753215,-0.091037735,0.56379336,0.25824568
-0.41780663,-0.88858336,0.20552969,0.3716756,-0.21973072,0.38366055,0.6969236,0.3301123
-0.39128926,-0.6831863,0.016509961,-0.4577443,-0.16501862,-0.0068892743,0.17752534,0.4143047
-0.79527414,-0.55066884,0.19502385,0.287127,0.5345566,-0.05338501,0.5412749,0.6881025
-1.0761502,-0.33018306,-0.31698874,0.2176909,0.36118424,-0.24675776,0.31858748,0.39067557
-1.0821882,-0.023708677,-0.20576736,0.6907525,0.4290612,0.0826484,-0.062393744,0.5315811
-1.089017,-0.46568877,0.060369905,1.5052433,0.5303313,0.21198179,0.66981226,0.19763505
-1.1336747,0.0049443375,-0.12636366,0.8418541,0.16858456,0.07604531,0.24144311,0.283868
-0.17808133,0.38654298,0.314677,0.18276834,-0.15489209,-0.34959835,0.47168782,-0.47929657
-0.026111389,0.55036724,0.16255222,0.2865262,-0.13308686,-0.26989183,0.2729011,-0.49060467
0.1295112,0.45553088,0.49445885,0.097412795,-0.038897697,-0.37950823,0.17913651,-0.41839093
0.07840082,0.5561194,0.2904288,0.15733886,-0.07174867,-0.4577946,-0.016355708,-0.40945777
0.16352752,0.41508722,0.18600035,-0.19920625,0.0017473679,-0.37644085,0.057854727,-0.22083125
0.23663132,0.24332988,0.1599067,-0.18216603,-0.017679928,-0.18476807,0.17669827,-0.24151693
-0.1292079,0.2838656,0.0059661367,-0.19979861,-0.18469816,-0.2943983,0.23882817,-0.12750162
-0.042833477,0.44937485,0.20859942,-0.3092532,-0.045327738,-0.05819691,0.42372712,-0.0296593
-0.5785751,0.9311029,-0.0040400107,-0.63248384,-0.9053476,1.02341,1.1523266,-0.284637
-0.78916824,0.447525,0.016896406,-0.8419884,-1.4881743,0.9803849,0.6944303,0.04464643
-0.4923801,0.10345678,0.14512591,-1.3731428,-1.2406554,0.6852692,0.43379954,0.21417801
-0.8548305,0.54562134,0.44520587,-1.2656903,-1.2067882,0.65118015,0.049632523,0.3201646
-0.44882423,0.39764234,0.10425243,-0.536784,-0.74233526,0.73041695,0.16832091,0.34754226
-0.4587526,0.41709828,0.2872249,0.4891984,-0.7281422,0.36839512,0.27481496,0.7291622
-0.1465552,-0.011476448,0.5118485,0.53536576,-0.12782101,0.56658703,0.46233508,0.6218167
-0.08076031,-0.09346829,0.380993,-0.1359611,-0.21198222,0.4014822,1.6414506,0.2795896
-0.12639414,0.20055401,0.203007,-0.21279123,-0.09522429,0.17633463,1.0638206,0.13561374
-0.3830074,-0.17067811,0.04991092,0.5312441,-0.34612793,0.23379731,-0.23641734,0.034624003
-0.23165038,-0.13155824,-0.18376108,0.5182196,0.048048545,-0.12651858,0.023935473,-0.18121862
-0.14067873,0.022263814,-0.015264889,0.20995533,0.021866638,-0.041391335,0.02734421,0.047409583
-0.01292901,0.072481625,-0.17152339,0.13643049,0.0128611885,-0.08082704,0.18348704,-0.023493275
-0.030120177,0.0407245,-0.016576728,0.056730963,0.0071281213,-0.050260488,0.059225287,0.0074712364
0.087089434,-0.022957265,-0.029092783,0.046333324,0.04773754,0.07137941,0.012627031,0.00438572
-0.114777654,0.0007066948,-0.23684499,0.10298578,-0.012497854,-0.048562944,-0.019607054,0.00903874
0.07280253,0.07871537,-0.08054373,0.05592915,0.0072521367,-0.08768324,0.068520844,-0.075038515
0.0073653064,-0.0025817284,0.025836902,-0.05971869,0.012335579,0.016711846,0.15530142,0.06109139
-0.18078755,0.077596135,0.050282758,-0.062811226,-0.08906501,0.15234981,-0.0024828268,0.085156485
-0.049422223,-0.3526523,0.027223451,-0.17846996,-0.08283779,0.24329424,-0.30283123,-0.16293164
-0.044131227,-0.76285577,0.083288506,-0.26780725,0.10998948,0.6231638,-0.77871656,0.0074916873
-0.070200495,0.014174943,-0.44013202,-0.0884362,0.009375675,-0.029762972,-0.67715055,0.081619054
-0.1343263,0.031771887,-0.23116732,0.265319,0.029111912,-0.30581728,0.04095715,-0.15891834
0.11340073,0.08470332,-0.2541333,0.2564233,0.094118014,-0.0920995,0.11592335,-0.14755052
0.058538,0.008812412,0.004354559,-0.17384171,-0.058642678,0.12260965,-0.5496269,0.01627594
-0.018637167,-0.29593986,0.9249208,0.038702212,0.029326214,0.09850726,0.4840802,-0.12832902
0.07493974,-0.21905649,2.0186074,0.13725579,0.104469396,0.24755728,0.6004628,-0.00030105794
-0.05145867,-0.17151245,1.9513797,0.008202217,-0.022277769,0.08706575,-0.11508429,-0.11034506
