-0.019952197,-0.0776356,0.027177159,-0.02823105,-0.012716418,-0.046949066,0.01420634,-0.05080639,0.036782123,-0.050325055,-0.3265069,-0.18180002,-0.113399096,0.064841576,-0.28043514,-0.021096662,-0.13960655,-0.15431416,0.26696974,-0.009644003,-0.077210926,-0.063171364,-0.06623809,-0.20393734,-0.0144576365,-0.16771433,-0.075558454,0.30843398,0.11608533,0.28422716,-0.082186714,-0.089807354,0.15547876,-0.063635744,0.059140854,0.08553474,3.1839223,3.4372795,2.8766747,2.3219445,1.9890311,0.93597394,0.44821993,1.1602193,3.4532235,-0.54524887,-1.0564513,-0.30084455,0.35944846,0.84476686,0.86085963,0.45164612,0.104932964,0.01173351,0.5750869,0.46750334,0.5345706,0.6577346,0.37452468,0.37662545,0.00869406,0.42812827,0.7949888,-0.066201374,0.20092286,-0.3649242,-0.25648698,0.06248293,0.07496597,-0.20970942,-0.13649541,-0.061348107,-0.75737906,-0.33136913,-0.11270582,-0.122231655,0.014399543,0.1534052,0.1961877,0.38690355,-0.42654175,-0.07319398,-0.12844117,0.11335186,-0.2547823,-0.6993823,-0.45412588,0.46927074,0.93124646,-0.052339215,0.082432374,-0.08149148,-0.02129282,-0.035952576,0.20320411,0.10455102,0.26120472,0.10787718,-0.8702987,-0.78543353,-0.7018811,-0.3350691,-0.29957685,-0.13346568,0.35500008,-0.010923494,-0.29005745,-0.64062864,0.1771646,0.034915037,-0.02198366,0.0705793,-0.027924027,-0.01396557,-0.05780778,-0.030685239,-0.1441041,0.108910926,-0.061486073,-0.123399384,0.047947638,0.04628309,-0.09219801,0.1396192,-0.014376036,-0.013634336
-0.023758668,-0.10924749,0.04990248,-0.027746297,-0.022801662,-0.0080154,-0.060922064,-0.050122075,0.28282142,0.17889531,0.13494049,-0.49863812,-0.03077913,0.013745162,-0.4136665,-0.30700323,0.033312745,0.12404717,0.007881142,-0.105803736,0.22395162,0.051766906,0.086738095,-0.09810821,0.16648543,0.008220251,0.3858803,0.1892819,0.08428277,0.44912234,0.16914082,-0.1306499,-0.01988187,-0.1219983,0.09303406,0.51285505,-0.7854291,-1.2086939,-1.4152572,-1.4752929,-1.433525,-1.3575809,-1.7799098,-2.6468117,-6.2818837,-2.3630028,-0.08031599,0.7748021,0.4081798,0.76188624,0.24395734,0.19788165,0.052271098,-0.027960286,-0.19467637,-0.15970683,-0.04064723,-0.105181925,-0.18218915,-0.10292264,-0.3058616,-0.7031393,-0.77703744,-0.5446018,0.07827193,-0.1801415,-0.081502974,0.26098624,-0.1313931,-0.18317689,-0.004144061,0.12172249,0.30793226,0.10383375,0.14199789,-0.015917009,-0.050418552,0.010918604,0.06366294,0.19033197,0.22393326,0.12527235,0.23258753,0.1901556,0.028564675,0.43990913,0.23879711,-0.4775815,-0.26974002,0.044402026,0.29159793,0.19655271,0.00715925,0.119183816,0.44439438,0.23843631,0.3358853,0.19119236,0.50991833,-0.117905505,-0.21545461,-0.33174488,-0.40681267,-0.470119,-0.2479994,-0.11096428,-0.021873321,0.102991916,0.009843912,0.058176544,-0.01180234,0.0070400927,0.13093764,-0.008687659,-0.12918465,-0.04083792,-0.18802308,0.07820941,0.10143769,0.22159016,-0.0549158,-0.06461854,0.17565672,-0.15330279,-0.03805398,-0.00981155
0.042962957,-0.0032358994,-0.011285785,-0.029784054,-0.053040903,-0.032984268,-0.0403771,-0.02974949,-0.21769948,0.30060592,-0.23702711,-0.4752747,-0.49748695,0.05601869,0.14801183,-0.18810762,-0.13399485,0.024267703,-0.13820471,0.0084681,-0.12794948,-0.08756508,0.1486369,0.058571868,0.056323726,0.13718642,0.5230638,-0.08374753,0.22278972,-0.39169064,-0.2507631,-0.045255665,-0.112593204,0.09548824,0.33028382,-0.0029910335,0.6809733,0.2505168,0.37561807,0.09607139,-0.22125208,-0.2785747,-0.61324674,-1.3126264,-6.455709,-5.0427427,-2.1030018,-0.34111398,0.20979233,0.20303538,0.6735954,0.21393234,-0.14289717,-0.32598764,-0.5947461,-0.1938505,-0.20574276,-0.2860447,-0.3145621,-0.16307136,-0.19289799,-0.47175628,-1.2041638,-0.882551,-0.65685356,-0.37914968,0.1930418,0.6591005,0.49966145,-0.45493406,-0.26889974,-0.10788515,-0.2408982,-0.1452723,0.0075236848,-0.053568367,-0.16452175,0.0015030882,0.23824398,-0.019902136,0.033776134,-0.7226448,-0.4252293,0.1558084,0.49919254,-0.7816625,-0.88175976,-0.50228924,0.23783629,0.15297365,-0.49453935,-0.3841937,-0.10675036,-0.0805993,-0.021088045,0.13398112,0.03855331,-0.10935964,0.5271311,0.47198698,0.15194622,-0.112806275,0.4045156,0.4191002,0.3586278,-0.2093463,-0.6821123,-0.13905954,0.06455888,0.008625093,0.016121408,0.02080341,-0.12631467,-0.006223854,-0.0067073586,-0.09847094,-0.024139265,0.23785667,-0.13140534,-0.121985555,-0.119707145,-0.097070016,0.09291413,0.055188518,-0.004520091,0.10985251
-0.16243237,-0.08166747,-0.07959275,-0.132977,-0.11687355,-0.051183213,-0.17492573,-0.08303296,-0.4137493,-0.16297252,-0.22959562,-0.49834815,0.22182097,0.6067941,0.1395126,0.14314762,0.43691754,0.5888788,-0.03048477,-0.11776343,0.049918834,-0.02209941,0.004565609,-0.061014865,0.13915287,0.02124133,0.14723516,-0.25230092,-0.022296524,-0.20430228,0.11465015,-0.13617152,-0.20406553,0.15600166,0.15757927,0.20609576,0.61800784,0.78731996,0.8369043,0.88738763,0.8122011,1.2086036,1.4693197,2.2465258,4.776443,2.7278268,1.8849407,1.7329552,-0.029506626,-1.9222704,-1.157907,0.25602156,0.67726,0.6773375,0.2256822,-0.023663217,0.10820679,0.23171428,0.21433395,0.3223659,0.3393154,0.4279106,1.1745926,0.41432008,-1.1403077,-0.98662543,0.28583544,1.0869355,0.54222333,-0.22184753,-0.44564912,-0.5322259,0.15963233,-0.19569522,0.03878653,0.14543204,0.01638029,-0.05862123,-0.055887867,-0.10996677,0.03335341,-0.918684,-1.1342934,-0.58366925,-0.60898536,-0.43326265,-0.46070328,-0.6608269,0.15843213,0.68449306,0.15721925,0.17884569,0.15874785,0.29146963,0.4405447,0.33295876,0.23289756,0.45228243,0.71475315,0.4741241,-0.19782516,-0.2725535,-0.5476381,-0.6184357,-0.23454297,-0.036571268,0.5247854,0.8761332,0.09481743,-0.0013559421,-0.0939965,0.11490787,-0.096911415,0.018174771,-0.06421454,-0.24120246,0.123987384,0.14035514,-0.23778789,-0.09949411,0.12800106,-0.054718107,0.33216724,-0.082807206,0.220457,0.26886687
-0.055692933,-0.16171569,0.02405789,-0.08676993,-0.07859866,-0.030332541,-0.0010655082,-0.1565863,-0.15957396,0.26306802,0.023717152,-0.42578328,-0.6085146,-0.25231677,-0.28184006,-0.26088297,-0.24811806,-0.15276694,0.4158092,0.24686809,0.2222129,0.09618402,0.11693034,0.09679693,0.016072936,-0.035946023,0.016589541,-0.2886367,0.11982881,0.43327653,0.22688937,0.3145743,0.12143151,0.16735071,-0.03652522,0.22931741,-0.20669253,0.15024649,-0.09287045,0.023921078,-0.09522901,-0.3427289,-0.26089558,0.82423884,5.3554263,6.088065,4.56738,3.505041,3.3136106,2.4555337,1.3943871,1.2094477,0.21009904,0.2901436,-0.35195103,-0.7959545,-0.6218102,-0.5563828,-0.55004483,-0.5661281,-0.8090953,-0.6328618,0.24280821,1.9572984,2.5867028,2.072777,-0.032524485,-1.0387601,-0.77340055,0.17531832,0.32520005,0.093238115,-0.2853516,-0.16783547,-0.1263116,0.046810042,0.10841449,0.109644644,0.020212151,0.10781231,0.20932756,0.3616192,0.21351679,0.384615,0.35883692,0.15441549,0.3357069,0.47567752,0.46259576,0.15226349,-0.24039972,0.037397,-0.14648241,0.029818747,0.17130333,-0.168109,0.20453364,-0.08085976,0.4335771,0.27704835,-0.07245329,-0.4253376,-0.40168244,-0.3489233,-0.04735832,-0.48351854,-0.33505842,-0.37668642,0.094882965,0.09210136,-0.03207496,-0.07063314,0.07369464,-0.053008128,-0.017174441,-0.040076494,-0.16524367,0.18938613,-0.08479605,-0.11130821,-0.08346757,-0.054441933,0.0027420644,-0.05321242,-0.2303023,-0.19684365
0.1515099,-0.02501385,0.08790619,0.05623168,-0.037770793,0.10799382,-0.120589316,-0.015572094,-0.30295047,0.088752575,1.0075876,-0.13272744,-0.4163263,-1.1107974,-0.66925836,-0.13053624,0.41532865,1.0376151,0.0008575715,-0.08358621,-0.11704329,-0.17364585,0.053143002,-0.19403313,-0.04324024,-0.14749442,-0.4560841,-0.57364714,-0.32540414,-0.27102125,0.0004429832,-0.22354539,-0.032707367,-0.06282054,0.38877743,0.0785794,-0.26096186,0.2919757,0.7500571,0.8564624,1.3484871,1.3470697,1.5021806,2.513488,6.042776,3.4225068,0.18892688,-0.49624306,-0.24278106,0.017970078,-0.280219,-0.055029217,-0.34708953,-0.7706554,-0.03658945,0.20445593,-0.047311403,0.18794338,0.24615043,0.49240345,0.54926944,0.62445533,1.076016,0.6152176,0.16508423,0.37206662,0.043814953,-0.16934423,0.3444056,0.3103576,0.121104926,-0.07537504,0.75225985,0.26370975,0.035709552,-0.3107568,-0.11100482,0.010722927,0.22929613,0.24824832,0.33601093,0.047832612,-0.26289704,0.001804131,-0.130079,-0.8591372,-0.7211415,-0.31820118,0.099011034,-0.29280683,0.13537318,0.058526725,0.124879904,-0.16476834,-0.018891176,-0.013431113,-0.012436615,-0.30153877,0.04166313,0.14841299,0.46179304,0.036758192,0.036979526,0.15096392,0.07605019,0.054184403,0.037994366,0.008617334,-0.10485142,0.032160908,0.13042723,0.096420884,-0.030623304,-0.09616744,0.11249184,0.04768486,-0.16888624,0.047427982,0.21127182,0.32226318,-0.08222306,-0.31096274,0.25062302,0.00034262904,-0.09548909,0.04077038
0.025700573,-0.024942337,0.0041876063,-0.011836897,-0.02138389,0.04660425,-0.005472676,-0.06097547,-0.29393846,0.048467994,0.4635167,0.342131,-0.13342309,-0.41065058,-0.040190466,0.25108033,0.19431522,0.39971122,0.270645,0.2157226,0.026661146,0.0130154565,0.068080135,0.12121172,-0.04285747,0.14015946,0.3935043,0.010198982,0.29965103,0.10302647,0.35903376,0.33701625,0.10906281,0.13874161,0.1006074,-0.37888998,0.20631097,-0.07615899,-0.22670653,-0.16754436,-0.07169503,-0.07902413,-0.1979829,-1.191441,-6.349417,-6.666447,-5.0408893,-3.0508778,-3.0366538,-2.321992,-1.474747,-0.43624395,0.3314492,0.4820354,-0.74902034,-0.5331758,-0.5460615,-0.5150382,-0.3525364,-0.4429834,-0.25005963,-0.5881005,-0.8204219,-1.7704159,-2.6897073,-1.4714549,-0.41708374,0.52069694,0.23591553,-0.24199235,0.08929163,0.1307102,0.006135935,-0.123918,-0.15566728,-0.052487805,0.094872884,-0.03509272,-0.09660244,-0.19821501,-0.6041783,-0.65564215,-0.21498732,-0.2430487,-0.19637424,0.08772849,0.58420795,0.6022984,0.070998274,0.06466694,-0.16121651,-0.027797071,0.0729535,-0.054290026,-0.17618108,-0.1771057,-0.028009135,-0.12572072,0.53270066,0.56856054,0.60413873,0.26561594,0.08468009,-0.025466816,-0.003715594,0.089298315,0.30781472,0.3593535,-0.0020537332,0.013058281,0.012931295,0.020756932,-0.05731913,-0.0381572,0.10458702,-0.008824457,0.001165881,0.039298687,-0.020273764,-0.07561097,0.02948385,-0.061528593,-0.029837916,0.07007366,-0.058382507,-0.09068605
-0.019519107,-0.014737727,-0.010128013,-0.020878276,0.02577993,0.030668747,-0.026950337,-0.014957247,0.33027616,0.44911495,0.15513755,-0.30870003,-0.09709274,0.0923552,0.28510785,-0.16432066,0.01896724,0.0575587,-0.39780304,-0.36291096,-0.12785308,-0.24307895,-0.10472104,-0.05885231,-0.08515072,0.05593659,-0.63437253,-0.50585836,0.17386279,0.047220595,0.2897672,0.30664453,-0.28910795,-0.1018529,0.21119535,0.20904662,3.7816112,3.54889,2.6813676,2.174114,1.5686568,0.8822902,0.4854952,1.026311,1.1829585,-1.6220484,-0.26850224,0.38821766,-0.38616845,0.066874,-0.08314304,-0.530782,-0.10463664,-0.39962006,0.82930166,0.45003027,0.4962435,0.14923264,-0.038425267,0.0692582,0.23128368,0.42069224,0.6023241,0.29529384,0.53778625,0.10178346,-0.43630233,0.10676617,0.3195535,-0.11649942,0.10231607,-0.13712066,-0.052353505,-0.012654741,-0.043315977,0.019279482,-0.04464264,0.036968075,0.045819484,0.30747372,-0.56834084,-0.19689296,-0.010964048,-0.15179163,-0.15966061,-0.60836387,-0.29026893,0.30976692,0.3273093,-0.0033410578,-0.536599,-0.48062354,-0.12384227,0.04075172,-0.21159792,-0.08200059,-0.045212887,-0.10044784,0.34604374,0.8432958,0.43250084,0.4677029,0.3560066,0.1965554,-0.022678033,-0.14011428,-0.15284084,0.52373713,-0.13072127,0.021367915,0.0077832686,-0.06476518,0.08740468,0.03554831,-0.10592121,-0.027742084,-0.024212709,0.07938992,0.115161255,0.18112029,-0.1284472,-0.03755619,0.1291075,-0.16059852,-0.037000827,-0.0014898119
