-0.95615643,-1.7261968,-2.2786956,-2.108978,-1.9016469,-2.1530044,-2.5549333,-3.581587,-8.191525,-2.092272,1.041632,1.5972724,0.5932704,0.28500447,-0.64334697,-0.10087954,0.10803997,0.4992786,-0.41528666,-0.20891634,-0.27041134,0.02529256,-0.04720122,-0.074049875,-0.3705075,0.11134174,-0.020437762,0.07513077,-0.38527042,0.12114896,0.06410949,0.29461753,0.0028432868,0.03175694,0.21140635,-0.01740856,0.11313676,0.12749496,0.14390472,-0.025494536,-0.07675323,0.2686663,-0.045744937,0.22265966,0.34752586,0.5364571,0.6787723,0.49188972,0.76944745,0.4980178,0.6122079,0.3208489,-0.0103769265,-0.53253835
1.3707609,0.5833055,-0.28095156,-0.26775306,-0.15737487,-0.23504142,-0.41356555,-1.5259306,-6.5132294,-3.5054185,-1.140718,0.28113213,-0.17137761,0.15129063,0.6568067,0.02388393,0.108618304,-0.59143454,0.40822893,0.28328133,0.1871332,0.05886133,-0.040647183,0.055680305,0.071878694,-0.046781108,-0.26876706,0.044049613,0.14745541,-0.1988742,0.016254954,-0.29577166,0.0076371646,-0.26299378,-0.10409012,0.22907215,-0.22154127,-0.1820254,-0.08602632,-0.053819966,-0.04481774,-0.11254403,-0.11444096,-0.06095083,-0.4001359,-0.5564948,-0.3882834,-0.3298536,-0.33132416,-0.5323345,-0.19364662,-0.17620476,-0.3133799,-0.37160435
1.3190492,3.2515936,4.035211,3.7512176,3.389542,2.2833061,1.9850125,2.3737829,3.334917,0.20847741,0.18028028,-0.25138012,-0.25382212,0.10314836,0.17358258,0.030204969,0.1733629,-0.40802425,-0.028619584,-0.07825513,0.014592723,0.019395232,0.06737753,0.054568198,-0.024144368,0.034876153,-0.20317227,0.05689946,0.107973225,-0.20294097,-0.20466858,-0.14254029,0.038064063,-0.0639221,0.05310023,-0.007017403,-0.7849322,-0.11948808,-0.12539655,-0.06687043,0.007460439,0.04854456,0.08273179,-0.051226024,-1.0042429,-0.05026655,-0.41539198,0.1944402,-0.44731936,-0.27344877,-1.0974052,-0.18715943,-0.5868223,-0.5600865
-0.37992105,0.52459973,0.58426094,0.013941504,-0.48302546,-0.35319927,-0.30414778,0.89367604,7.252018,8.375151,8.138327,6.387306,4.6865606,1.4791564,0.5167729,0.17330506,0.37898314,1.9551615,0.18585013,0.12117138,-0.067070425,0.016049378,-0.0730635,0.05627367,0.019035405,0.11431734,-0.064599454,0.06372629,0.17340179,0.16447413,-0.26110822,0.057273973,-0.14641863,-0.17511208,-0.017327582,-0.1468388,0.25060576,0.087705836,-0.067903034,0.09616132,-0.021171447,-0.025865827,-0.0013283239,0.2162765,-0.1715232,0.16283593,-0.071356565,0.11719597,0.26328284,0.08637097,-0.2973836,-0.42645416,-0.5452561,-0.5439682
0.028442608,-1.3342413,-1.3093975,-0.703734,0.097771294,0.58575433,0.4902559,0.11617903,-0.6629163,0.273,-0.12812439,-0.3957067,0.44156504,-0.1599228,-0.104790896,0.15206735,-0.31375888,0.16681807,0.05801263,-0.15825945,-0.0061372975,0.041752834,0.039042767,-0.045657646,-0.03630782,0.029510265,-0.01764016,0.025320705,0.049874086,0.06938389,-0.104790166,0.065274805,-0.06370717,-0.0742795,0.07474697,-0.027089782,0.11947596,0.090361476,0.10906709,-0.021314679,0.096484624,-0.09052369,0.08035767,-0.2880938,0.053735595,-0.57336336,-0.17545581,-0.40757704,-0.00588494,-0.13633758,0.20469655,-0.63834435,-0.48467755,-0.49656954
0.094936274,1.4354763,1.7531738,1.8020471,1.6914451,2.0502138,1.8443379,2.7168815,4.0967603,-0.82671165,-1.285839,-0.2936984,0.6316909,0.45479122,-0.19574738,-0.35092118,0.11585895,0.17448637,-0.4754902,-0.6158726,-0.04588678,0.25549713,-0.113392755,-0.15774359,-0.25017464,-0.062106714,-0.07698427,0.3473321,-0.37539676,0.3956084,0.60141504,0.115863055,-0.17553914,-0.33632803,-0.1602727,0.4061912,-0.051076297,0.037863743,0.17616002,-0.20424879,-0.08976191,-0.19078685,-0.16446468,-0.063453645,0.08712837,0.73119396,0.6531362,0.76647425,0.51824766,0.7734052,0.43630728,0.13290933,-0.20707448,-0.15928802
0.8076717,-0.3536679,-0.77778155,-0.767285,-0.8020461,-0.77245677,-1.2627251,-2.4293022,-7.8675385,-4.48448,-2.2553372,-1.2411491,0.028627846,0.2772704,0.20085222,-0.09351469,0.095201075,0.2677704,0.031525396,0.13292088,0.037856594,-0.04381043,-0.036375128,0.117793776,0.24119359,-0.053031076,-0.011704951,-0.00956926,0.2729475,0.23727362,0.10193883,-0.054925334,-0.1139226,0.1000633,-0.29106793,-0.12705062,0.24426074,-0.0028831514,-0.06903219,0.11584852,-0.0021851228,-0.08283158,0.03444153,0.17044553,0.24175443,-0.20856316,0.16821617,-0.3260309,-0.30444363,-0.43824416,0.03641191,-0.20034125,0.20648761,0.23723926
-1.4215219,0.2417254,1.1444839,1.1453611,0.5514671,-0.27967837,-0.14927572,0.8014106,4.8438635,0.26012287,-0.14276262,1.2937143,2.2523358,2.0487118,2.4530854,2.5375352,2.844385,3.116463,0.46563557,0.8243903,0.054001037,0.0053247027,0.029613035,0.25819376,0.04546034,-0.08509588,-0.15983012,-0.45998418,0.8836336,0.50463706,0.81851804,0.32030356,-0.106581345,0.33565265,-0.020780252,0.16191581,0.048056606,0.0672655,0.007875822,0.0036330991,-0.35657337,-0.012294971,0.08738003,-0.40738785,-1.1714493,-1.0607584,0.12931696,0.36772886,-0.19343635,0.4910929,0.38168824,0.38690326,0.3420097,0.5981501
