0.13032262,-0.10453397,0.020262439,0.07666225,-0.24244946,0.1332481,-0.06018336,0.44136682
0.077401035,0.04402147,0.10181568,0.0055406704,-0.115008496,0.095160455,1.1403827e-05,0.42801988
0.035245296,0.09159125,0.059848096,-0.016468119,-0.08185181,0.014881293,0.13545641,0.05251597
0.012696739,0.051593997,0.04724345,0.033015445,-0.0071287197,0.068108946,-0.050770275,0.24888386
-0.013118218,0.0044275415,-0.0056961104,0.03392591,0.00367383,0.055479567,-0.042783946,0.083993785
-0.019323174,0.060003396,-0.044869564,-0.1280542,0.011027032,-0.04894038,0.17706472,0.041737672
-0.006714202,0.0045057414,-0.017967382,-0.020425558,0.002718915,0.027438935,-0.048597302,0.07698425
-0.016220823,0.12084402,0.026341945,-0.05385122,-0.020718955,0.1470736,0.06402421,0.22421104
0.25829008,0.38087842,0.11532273,0.53341866,-0.7985308,0.3658595,-0.15439455,1.2171865
0.3252994,-0.00090117677,-0.18569164,0.7878225,-0.44558305,-0.32570747,-0.81698817,0.6529388
0.06949186,0.091143,-0.15598805,0.25753698,-0.25065467,-0.10716149,-0.17729938,-0.2864236
-0.03114545,-1.8527747,-1.1436931,0.2048094,0.08319943,-1.1515509,-0.31199065,-0.6089741
-0.19996375,-1.3831156,-1.3426932,-0.38603038,0.18679082,-1.2124277,0.13756597,-0.42030132
-0.10949394,-0.28191707,-0.5534242,-0.0011545586,-0.033898413,-0.26551965,0.08121881,-0.15443292
0.043008845,-0.42480037,-0.16406915,-0.21329334,0.3706664,0.011169061,-0.6395165,-0.38068858
0.053498767,-0.2559063,-0.22586535,0.21284792,0.37311572,-0.008588829,-0.81226915,-0.22846837
0.16181538,-0.4105867,0.014696759,-0.3810639,0.33412263,0.57879406,-0.5185296,-0.60508645
0.4134327,0.31482202,0.115163825,-1.1716214,0.2059198,0.10199886,0.12266407,0.5036656
-0.054472934,-0.6953236,0.10601001,0.67642665,-0.3849315,0.3981657,-0.6053087,-1.5444272
0.20833394,-0.90964425,0.13416088,0.50890803,-0.49727097,0.07906143,-0.4660901,-1.1595595
0.23600331,-0.39639923,0.18061818,0.27810964,-0.30874848,0.12737997,-0.42847914,-0.98086864
0.045744594,0.099689804,0.10200432,0.20124973,-0.07168589,0.103242174,-0.22999023,-1.1187118
0.052031912,-0.01915181,0.042994663,0.24262372,-0.014399787,0.05611052,-0.4202128,-0.980275
0.08525557,0.06433919,0.042873554,0.36593834,-0.17703164,0.07263522,-0.33651352,-0.70756954
0.032735176,0.08683809,-0.16679694,0.09792463,-0.110930085,-0.090771444,-0.13231553,-0.58872664
-0.04466203,0.04131661,0.10401082,0.26282132,-0.0010867617,-0.09504695,-0.25488967,-0.33660346
0.3673207,0.094856605,0.26730314,-0.023669062,-0.024038592,-0.26946634,0.025868833,-0.0031818259
0.7229778,0.2433656,0.30700123,-0.120845646,-0.031623013,-0.2846064,-0.0695791,0.8337046
0.63420343,0.8338851,0.06465062,0.024058152,-0.056380566,-0.1903097,-0.15593824,1.087271
0.50954753,0.67009544,-0.0714615,-0.121852465,-0.21610251,-0.37266877,-0.091473386,0.13650878
0.49562868,0.4888473,0.0535863,-0.24255759,-0.21953571,-0.25101116,0.4660198,0.17369603
0.24286589,0.17733444,0.28450572,0.13374703,-0.33618686,-0.16375796,0.7260475,0.21208996
0.17266995,0.09575698,0.2815962,0.18479283,-0.07129708,-0.15286958,0.42930365,0.8554161
0.06689119,0.32353902,0.11787109,0.14254598,-0.047418807,-0.2684287,0.4192499,1.003609
0.08078955,-0.55345315,-0.13210893,-0.1622156,0.11123898,-0.47979766,0.5472287,1.6635805
-0.1701216,-0.69335985,-1.0062263,-0.15329695,0.16214466,-1.3416928,1.09972,2.2611783
-0.21425766,-0.23165202,-0.5343781,-0.18554385,0.21304159,-0.30098873,0.613702,-0.23869358
-0.39504483,0.32214344,-0.52098507,-0.20780097,-0.14970899,-0.2048697,0.12143584,0.14751664
-0.24165443,0.7079449,-0.33984423,0.03677792,-0.6596098,-0.49430713,0.075819194,-0.07405203
-0.2767408,0.35269147,-0.28383082,0.057331122,-0.4608417,-0.22466211,0.2490931,0.17284514
-0.2373845,0.17712212,-0.5194259,0.057255648,-0.17424452,-0.24326666,0.21994638,0.4169666
-0.48979232,0.0047848327,-0.43317547,0.088951826,-0.0661131,-0.16485155,0.15281498,0.18531643
-0.75375473,-0.5093909,-0.41013888,0.012272004,0.01801045,-0.30900383,0.35461098,0.13454917
-1.3379587,-0.19756609,-0.40744576,-0.07084691,-0.03415546,-0.13711621,0.3151944,0.26649576
-4.7182126,0.047548603,-0.8217163,-0.2672916,-0.34824553,-0.52863485,0.018661158,0.4085695
-6.3101482,0.43983847,-0.8566005,-0.10563078,-0.35218105,-0.9789292,0.4589486,-0.6116608
-6.5279202,0.15376459,-0.73317415,0.618469,-0.3806891,-1.1068823,0.58458245,-0.34722418
-5.670093,-0.11923012,-0.8868689,-0.119566776,0.06046915,-0.6380189,-0.14179881,-0.31737745
-4.7259283,0.5059249,-0.93400913,-0.18402815,0.091145545,-0.41354844,-0.32792023,0.10718804
-3.3857856,0.2636679,-1.359071,0.17603265,0.12755378,-0.27823457,-0.48439974,-0.068131655
-2.48622,0.4008422,-0.85313433,0.06095839,-0.20903815,0.27272916,-0.6947773,-0.18531305
-1.6126031,-0.08704724,-0.9100551,0.6668727,-0.42210054,0.7237604,-0.8932546,2.079097
-1.2350554,0.06376761,-1.0678822,0.3278436,-0.21889625,0.4008048,-0.71533734,2.0764368
-1.9572068,0.41415617,-1.5019853,0.08243648,-0.14840668,-0.91644794,0.50093627,0.9553336
0.18061975,-0.35095492,-1.7887902,-1.3418056,-0.806464,0.106973134,-1.0089433,-0.7625545
0.09192461,-0.79357857,-1.5649557,-1.5996554,-1.413178,-0.21708758,-1.2028406,-0.53070736
0.3040494,-0.77998024,-1.5961155,-1.3586745,-1.6606992,0.082975544,-1.2372206,-0.65293956
0.041055236,-0.6076194,-1.9688692,-0.84278756,-1.2261511,0.43740422,-0.59207547,-0.7601374
0.30010298,-0.34329247,-2.0476236,-0.97620183,-0.806047,0.8386567,-0.18321313,-1.2307624
0.23625842,-0.19487272,-1.7438159,-0.44646016,-0.5931642,0.6718137,-0.108107105,-1.4370108
0.5107827,-0.45750174,-2.03323,-0.34337267,-0.24251024,0.7174046,0.08985253,-1.2695726
0.35946622,-0.40690354,-1.8388059,-0.35007432,-0.1520218,1.0966,0.15072148,-1.6872563
-0.27299616,-0.18437769,-2.2834609,-0.8266263,0.48424426,0.69053763,0.47434363,-2.0883422
-1.6194404,-1.1947101,-1.4045837,-0.54058164,-0.006609615,0.120947875,0.49842983,-0.39911872
-1.1380268,-2.6351166,-0.57341105,0.06586488,-0.5990122,-0.45133698,0.33105162,2.7181208
-1.4848555,-1.2760462,-0.7473589,0.13446662,0.18873855,0.026090788,0.5100758,1.5770309
-1.1353027,-0.36743122,-1.0026283,0.35252693,0.6240249,0.1900191,0.111199476,0.5393992
-1.2145433,-0.37747058,-0.7672007,0.12459808,0.34879902,-0.4377847,-0.62068975,0.14018056
-0.5578563,-0.67943174,-0.42048985,-0.26735663,0.670999,-0.43394244,-0.09701108,0.06003856
-0.7804191,-0.96617746,0.027989935,0.011238963,0.5586434,-0.44897133,0.45268723,0.014694203
-0.97946745,-0.5799959,-0.1309806,0.12989594,0.22949588,-0.5235031,0.57656795,0.4876595
-1.2316773,-0.6170334,-0.6941028,0.97033376,-0.5159339,-0.7731652,1.2361883,1.2341607
0.054151107,-0.37959647,0.4827084,-0.039798312,0.22178738,0.27730882,-0.28433272,0.16504964
-0.104514346,0.009660286,0.050093155,-0.06600741,0.1931792,0.19878419,-0.1833831,0.12148349
0.055146035,0.00086320605,0.007870447,0.098475076,-0.053022664,-0.15038678,-0.029055858,0.014301508
-0.057431567,-0.18078884,0.13286823,0.071961574,0.097603,-0.057602763,-0.015762554,-0.10688232
0.07672272,-0.09718223,0.069753185,0.124770574,0.0004707193,-0.2319854,-0.07858567,-0.0026141375
-0.10936153,-0.12032319,0.057908945,-0.017019086,0.2519032,-0.023569185,-0.03940538,0.06626614
0.083699584,0.14095043,0.28814983,-0.0050715343,0.00018461705,0.17071967,-0.15495934,-0.0053219013
0.089374796,-0.27573243,0.389194,-0.07280384,0.21939327,0.18094929,-0.34642565,0.0038620797
0.40988198,-1.0107026,1.6057605,-0.6322049,0.89896107,0.29841173,-0.63645875,0.004551307
0.5547549,-0.8320542,1.732636,-0.30208775,0.8068469,0.036901105,-0.475344,-0.27100107
0.2559697,-0.07299887,0.43079895,-0.20927916,0.6863495,0.40792885,-0.10197851,-0.4424816
-0.0038518521,0.26495004,0.43204612,-0.07775843,0.7129319,0.25283784,-0.15253827,-0.42532325
-0.12639049,0.54181653,0.11916734,0.14725369,0.36744025,0.056604132,0.03574399,-0.71537614
-0.5879536,0.6503651,0.4144416,0.22497332,0.31747162,0.10080702,-0.3633429,0.104989424
-0.6051044,1.048848,0.03671459,-0.092136554,0.07418668,-0.016485834,-0.30134428,-0.064340204
-0.61045516,0.95785517,-0.32256687,0.1087054,-0.27122095,-0.26535168,-0.21975918,-0.23906335
-0.47470158,0.7153237,0.19309862,0.03905005,0.128964,0.1093067,-0.52200353,0.31525245
-0.3693135,0.7367725,-0.32545844,0.020725146,-0.086865015,-0.4194263,-0.23609322,0.1630142
-0.28001943,0.18260723,-0.25307965,0.116760276,-0.66265297,0.53996193,0.28068444,0.15241644
-0.17950332,-0.25284192,-0.12689202,0.009385653,-0.36169302,0.53815407,0.2909364,0.59616786
-0.20168255,-0.4070121,0.05738877,0.18704365,-0.3131427,0.2735753,0.2252392,0.54224616
0.03423816,-0.4233156,0.03871832,0.15686542,-0.51634026,0.46923837,0.15869531,0.6184909
0.11457404,-0.3328402,0.16179849,0.20959465,-0.4697241,0.25801656,0.15083815,0.25182098
0.10402774,-0.2629151,0.039227825,-0.043784145,-0.24704504,0.40679693,0.019492969,0.23486352
0.02616427,-0.19054022,0.09151999,0.3056775,-0.46728212,0.49823835,0.33025607,0.3154375
0.15933895,0.07874815,0.20000486,0.095788784,-0.4452905,0.42574027,0.29601845,0.729136
0.54544115,-0.36386102,0.30592492,-0.085040055,-0.003570034,-0.060692623,0.045481388,0.34017113
1.0814874,-0.14601265,0.29165003,-0.19001819,-0.057739805,-0.17300965,0.15117444,0.34820578
0.55379355,-0.2669393,0.5063966,-0.5358199,-0.45785743,-0.6957927,-0.24236888,-0.50919265
0.82988816,-0.087508924,-0.27209964,-0.37115344,-0.009279313,-0.30607855,0.38286242,-0.15186965
0.47471723,-0.05565573,-0.21757981,-0.41310427,0.2514491,-0.54787534,0.18619706,1.0859181
0.036964487,0.25177464,-0.4385676,-0.62729096,0.044599626,-0.72720486,0.35621098,1.1169742
0.319675,-0.22002046,-0.053694896,-0.20748392,0.37673897,-0.51571685,0.13986273,0.534977
-0.20036334,-0.43464464,0.06993467,-0.10983182,0.34342858,-0.38273183,0.13092545,0.3966253
-0.068780854,-0.33103624,0.009144157,-0.42487615,0.2602959,0.2504422,-0.22657277,0.44408882
0.032114442,-0.42042604,-0.00853823,-0.67643344,0.5336632,0.30074173,-0.23255096,0.006928499
-0.042245127,0.092167296,0.1404872,0.09599081,-0.052000307,0.013869256,0.16410396,-0.16610605
0.100603946,0.23298137,0.16441827,-0.09213658,-0.18426788,0.11003024,0.19266753,-0.02969759
0.07226354,0.05777857,-0.039773956,0.08317384,-0.17260909,0.12495134,-0.05382315,0.23632668
0.05044098,0.16321753,0.09610757,-0.04863696,-0.07414443,0.10617241,0.04058949,0.21107747
-0.025223475,-0.09161247,-0.04081481,0.046506505,0.0114596225,0.06511173,-0.08048248,-0.16375865
0.03447953,-0.0029915695,-0.05704111,0.03029208,-0.059050467,-0.052442968,-0.037056647,-0.032476727
-0.0051346547,0.059450004,0.0847877,-0.0087994635,0.022312813,0.08157978,-0.046082687,-0.014049596
0.042168576,-0.020917028,0.016576871,0.027073996,-0.054573666,-0.022830166,-0.009975319,0.0021804464
0.0012229196,-0.042307366,-0.07154646,-0.05397326,0.01875555,-0.18184446,0.053481035,0.10035115
-0.0027147108,-0.06657716,-0.03905132,-0.17690292,0.15335424,-0.027508512,-0.06586986,0.20159808
-0.08000817,-0.21974964,-0.21404886,0.08290549,0.01969908,-0.29887912,0.04976838,0.006599353
-0.011271258,-0.0041809306,0.071201324,-0.18283203,0.099832535,-0.15397693,0.06297992,-0.35783514
-0.027284894,0.15212108,-0.20184149,0.008305402,-0.019727005,-0.4765504,0.1244419,0.37548164
-0.013237633,0.06961765,-0.10416385,0.20292896,-0.0060145087,-0.28702497,-0.1601306,-0.17806387
0.043795444,0.09998879,-0.013970352,-0.15641172,0.020745752,-0.06643385,-0.040035605,0.18604182
-0.052028418,-0.1241003,0.036420554,-0.118675,0.19013037,0.024624024,-0.1702263,-0.33282956
-0.10961188,-0.21481816,-0.02582962,-0.12616925,0.118540384,0.066222765,0.06273083,-0.22448432
0.04711187,0.11705218,0.040945724,-0.12521547,-0.083908774,-0.10419686,0.20430012,0.5603981
