-0.09560492,0.6053305,0.022676893,0.14509031,0.024902659,-0.40135872,-0.28317624,-0.18564783
0.02079638,0.0065520075,-0.13132513,-0.6079498,0.13865055,-0.77132034,0.6614597,-0.6264793
-0.045780256,0.7458236,0.20791192,0.44733647,0.08898168,0.47481033,-0.20717795,-0.07062304
-0.10464985,-0.023830093,0.04901567,0.30000287,-0.055069543,0.5372742,-0.10157817,0.16901858
-0.1453872,-0.2888768,0.010749327,0.6492255,-0.103033036,0.2712937,-0.23206387,-0.13306586
-0.013563714,0.10118407,0.09916288,-0.24729797,0.0061138095,0.09845266,-0.12428549,-0.011568265
-0.004596501,-0.07344138,0.067122556,-0.47676823,0.008076179,0.11182588,0.0021357136,0.08374731
0.15553518,-0.26329055,-0.23047343,-1.0068681,0.05251376,0.030370828,0.47421363,0.39224607
-0.21236506,1.2215412,0.27779728,2.8747864,-0.13607511,-1.2653348,-1.4108453,-0.21901727
0.01650953,-0.07105353,-0.0016819692,0.7947337,-0.037668604,0.17970857,-0.6498352,0.31052452
0.079850316,0.5546479,0.022461094,-2.689007,0.11912894,0.77420014,1.4404922,0.07446953
0.14603913,-0.37912622,-0.016159924,0.5583686,0.14321992,-0.07377454,-0.23096487,-0.17972837
0.022125822,0.7014933,0.19891757,-0.20827538,0.116493516,2.0857062,-0.4569778,-0.29617777
-0.124285296,0.5274098,-0.055194944,0.6820223,-0.094235495,-1.0917097,0.27438655,0.44274616
0.16888313,1.1220446,0.023910204,-1.1639227,0.2755179,1.1947827,0.54427797,-0.76644784
0.065146014,-1.0639902,-0.060150303,0.6323706,-0.0868623,0.15694492,-0.96772146,0.62308776
0.20797183,0.43510807,-0.19613452,1.373534,0.21692675,-0.83428454,-1.8864619,-0.66017693
-0.07608658,-0.26413998,0.15263085,1.8592963,-0.090742126,1.3322238,-1.5159575,0.3406879
0.0046035657,1.4498171,0.9671797,-0.7973636,0.2526051,1.3014613,-0.1880058,-0.14773169
0.030102378,0.17503494,0.05627992,-3.7138352,0.18173897,0.02312149,0.9752922,0.5555496
0.109540604,0.31209764,-0.27789858,-1.572794,0.22389294,-0.62055343,0.57925254,0.6627742
-0.01418523,-0.09305738,-0.27973947,-0.40919954,0.093804106,-1.2216499,0.9932969,0.4984222
-0.34780088,0.09496811,0.29221433,0.48204482,0.045111954,-0.16611886,0.34264675,0.05081741
-0.47049943,-0.119050846,0.27933887,0.851063,-0.020534042,0.22291255,-0.2110595,-0.6836
-0.5470673,-1.171331,0.48075193,1.3994895,-0.056469638,1.5616268,-0.09640665,-0.5994621
-0.4105385,-1.4211065,0.19462384,-0.0010829812,-0.019164708,-0.5704179,-1.1711001,-0.63683045
-0.45075604,0.98890907,-0.7802747,0.7659641,0.7435139,2.2669992,0.92655927,0.28945717
-0.33068553,1.0781765,0.59789664,-1.6954522,0.69486845,-1.1712124,-0.036843657,0.8885582
-0.22757111,0.69912654,1.2134123,2.6719682,0.48166016,-4.6023674,1.1773068,-0.10927126
-0.49526688,-0.64786756,-0.20378332,1.2724274,-0.24005494,-1.2433491,0.7935112,0.084975176
-0.68241155,-1.1463878,-0.032790717,-3.6507926,-0.47985482,-0.72962713,1.0533344,-0.099187374
-0.19067083,0.50019026,0.7936167,1.0431067,-0.091116264,-1.4020014,-3.0984776,0.16597132
0.20809169,-1.221128,-1.0688773,1.3520428,-0.041898318,-2.193911,1.7956544,0.6381335
0.14094245,-2.4740813,0.020799581,-2.050883,0.15464592,0.53969413,0.8144374,-1.3744228
-0.36152643,1.2522587,1.0660822,-1.7334491,-0.07041825,2.6489203,-0.12762788,-0.5318605
-0.57989174,-2.4950755,-0.6653558,1.7822156,-0.7961081,-3.19557,0.80966574,1.0450665
2.026622,-3.3239398,-3.6538646,-5.432043,-1.4442428,-2.385246,2.4706676,6.4976687
4.6782246,-2.3866267,-2.1710649,-2.1474578,-3.79332,-1.7787968,4.6217656,5.164742
5.002508,-2.1590292,-3.207248,-2.4934533,-4.1049623,-2.209819,4.076107,4.9543242
4.5958056,-2.4972599,-4.8388906,-3.2494948,-3.5490966,-2.7601137,3.2959146,5.064338
4.2471313,-2.3759787,-5.9492188,-3.645044,-3.366896,-3.0830097,2.1842484,5.0456634
4.221714,-2.3051605,-6.5897937,-3.8078227,-3.4128723,-3.385187,2.122481,4.8520713
4.613726,-1.5765939,-7.2077146,-3.326328,-4.390007,-3.3276167,2.5132105,4.4820743
6.0369034,-0.62423515,-7.0431857,-2.7592335,-5.2870703,-3.1665382,2.9221182,3.6034064
12.680508,4.33171,-3.696694,2.5434103,-11.611011,2.338534,7.6600313,-1.2846984
10.323098,2.6893642,-9.348779,0.81673914,-8.947973,1.5737439,3.3240652,0.39526427
6.17047,0.112051986,-10.890779,-0.5760017,-4.4054766,0.76966834,0.6376164,1.5798732
2.6152697,-2.1604571,-5.27321,-2.0245173,-2.1656992,0.9163881,0.023171002,1.573298
1.7893378,-1.7947747,-5.8943977,-0.5090278,-2.1977935,1.4516501,2.4399858,1.5545405
0.9783212,-1.5569853,-3.1010869,1.0050925,-0.8922423,1.4965391,1.4088417,2.7610097
0.2539211,-2.503985,-0.1692807,0.85670805,0.12324195,0.20996515,0.7129374,3.1668465
-0.58209,0.6533062,-1.109955,0.3075471,-0.8298265,0.32811794,1.5106877,0.8380731
-0.5755207,1.8337315,-0.07534709,1.3463992,-1.0741806,0.7615865,2.5999074,1.502779
1.0335263,-0.9133203,-0.048306048,2.7431672,0.6970439,-0.5615194,3.3943286,3.3622947
-0.34533465,-1.355458,-2.6908643,-1.0040542,0.010305539,-1.9308236,-0.42142472,1.396514
0.5211489,-0.93611866,-1.3291177,-0.6538005,-0.68130296,-0.9639856,-0.3241959,0.6609165
0.5614612,-0.6278931,-1.3843664,-0.56150526,-0.90669876,-0.56515086,-0.19467273,0.6422266
0.5884725,-0.86238086,-1.5835246,-0.64961934,-0.8687048,-0.688281,-0.37766293,0.53929776
0.57838315,-0.69433343,-1.1207724,-0.59296256,-0.9490193,-0.484794,-0.110089734,0.51957256
0.9812029,-0.33401978,-0.5955969,-0.37536305,-1.0822709,-0.041904245,-0.16993678,0.23318613
1.0106713,-0.47874773,0.24902865,-0.7167483,-1.1525528,-0.33009133,0.0022408208,0.14223178
1.187021,-0.6750672,1.2331554,-1.0949965,-1.1280648,-0.36922422,-0.65734917,0.3117906
1.7622375,-1.5163934,4.2246623,-2.1212585,-1.2608945,-1.2917213,-1.7568494,0.10451335
2.362946,-0.70810753,1.2117747,-1.395087,-1.8290527,-1.897546,-1.0466242,0.080489755
0.65350664,0.45940173,-2.3225615,-0.32124373,-0.9454731,-2.120337,-1.8128291,1.1226261
0.6469769,0.82058126,-4.834745,1.6329855,-1.1572655,-1.4306401,-0.042709835,0.22963504
0.78129673,-0.21535791,-2.6292186,-0.3605832,-0.48962295,-2.08467,-2.292943,0.05713854
0.27753207,-1.0253559,-0.26370537,-1.3785433,0.33946246,-2.1553807,-3.1278355,0.8589087
0.079550825,-0.3531501,1.7780403,-1.6990991,1.072697,-2.0909066,-3.4930334,0.94119966
0.5521551,2.3906324,0.50580686,-0.96347463,-0.011296176,-1.8435903,-3.25747,0.10567484
0.014312686,4.0029845,-0.3728969,-0.33571714,-0.101293966,-1.4983971,-2.4891443,-0.45148894
-0.5727405,4.313197,-0.10575008,0.991005,-0.40475774,0.06677957,-1.2144278,-1.864707
-0.8176861,0.5652711,-0.43115023,-0.21810661,-0.05504248,-0.8417572,-0.22898363,-1.399252
0.021963755,0.022206403,0.077537514,1.1285144,0.20603158,-0.5900989,-0.05942538,-0.4650185
-0.13984533,-0.07653514,-0.2163954,1.7387401,0.072279066,1.0814642,-0.15119235,-0.7846894
0.06773872,-1.0291061,-0.15020952,0.34875637,-0.0011173761,0.81447494,-1.029997,-0.825539
-0.19619279,-0.29784,-0.06855908,0.041498296,-0.1483303,-0.4556566,-0.16909666,-0.26882464
-0.076019965,0.20837697,-0.020486347,0.3254158,-0.16254519,-1.0330164,0.07912355,0.20921478
-0.22003761,-0.34495696,0.14665541,0.83996195,-0.27283517,-0.32097685,0.12221218,0.32089266
0.16482885,1.1258011,-0.42991126,0.65157324,-0.0831182,-1.7882375,-0.07844331,0.25442597
-0.81707,1.5247165,0.72376496,1.4288262,-0.31568626,-3.0192778,-1.022892,0.063906126
0.6687876,0.90369725,-0.024676241,-0.64296526,-0.47049588,-4.8990126,1.5989617,-0.82894516
-0.39357507,-1.4132801,0.068954855,1.267906,0.43892017,-2.1495583,-0.48669657,0.82169086
-0.03815307,-0.713507,0.32397908,3.6041358,0.06852346,-2.4452312,2.8834941,2.5828466
0.36375314,0.3113472,-1.0416065,-0.8625957,0.66802543,-1.7668873,1.9015208,-0.99029964
0.071749255,0.96552855,-0.2211831,0.6270164,-0.31075227,-0.6963629,1.8130819,0.0064240387
-0.83056796,-1.2825686,0.63322806,-2.427091,0.15009649,-0.80690974,2.1865046,0.22258328
0.5086919,-1.6437447,0.5688223,1.1626704,-0.15895447,0.42752805,1.1693076,0.42625967
0.2836925,2.9315612,0.11704865,-1.4739505,-0.15844943,-2.0557165,-0.060930967,-0.33835524
0.079118766,0.7984955,1.47672,-1.9144198,0.21098495,2.8152914,1.2768254,-0.5861487
0.1575067,-0.32016838,0.0022113328,-2.665128,0.13760234,0.5352466,-0.20897593,-0.62004614
-0.26613057,0.23092397,-0.7012087,-1.3573412,0.008290451,1.4544853,-0.10122553,-0.31827894
-0.06475655,-0.08657286,0.47316146,-0.17257112,0.03588121,1.3465993,0.28055742,0.009291524
-0.28982213,0.16459662,0.6927012,-0.28101882,-0.009512615,1.87859,0.8636703,-0.29219478
-0.21839952,0.34409732,0.3917876,-0.43093586,0.074268796,0.8214258,0.28398696,-0.15974684
-0.27355364,0.30129704,0.692082,-0.34765968,-0.091953665,0.7269666,0.1952982,0.037324272
-0.20906323,0.27628922,0.38188297,0.45552707,-0.0048698587,0.75982285,0.030552646,0.027971283
0.07974981,-0.5571659,0.10410144,0.3446858,0.07564797,-0.6072817,-0.3888515,0.14703958
-0.57953906,-0.08614133,-0.08830209,-0.17982496,0.6223524,-0.49097905,-0.14862233,0.22538659
-0.5554006,1.2884293,1.4439747,1.9370289,0.47221297,3.394139,0.44517103,-1.3633832
-0.4182206,0.9835483,1.4785197,0.491539,0.27678382,2.7545784,0.6461491,-2.3368258
-0.4698379,0.70820504,0.718672,-0.76806,-0.039214555,0.95969796,-0.57611525,-1.573859
-0.24054411,0.68976355,-0.060224295,0.23640496,-0.05990135,-0.55130947,0.29811028,-1.4048598
0.051249254,-0.17087515,0.44915533,0.016784508,0.14084712,-0.08305103,-0.15707788,-0.74199295
-0.39881182,-0.47624627,0.4761625,0.88622034,-0.045027982,1.3939677,-0.530742,-0.8011816
-0.19265865,0.7683644,0.0077593364,0.33644935,-0.26000324,0.7946132,-0.7423331,-0.99713135
0.34471014,0.76474476,0.48034987,-1.0408553,0.37429443,-0.3915821,-1.7118773,-0.047806416
0.06767011,0.549763,0.23869652,-0.8886996,0.09179891,0.50131893,-0.21899283,-0.50577337
0.032613836,0.49752298,0.08442902,-0.42033237,0.10312448,-0.32784396,1.0455532,-0.051531196
0.04883447,-0.27037963,-0.06829439,0.1818957,0.023837378,0.062029123,-0.19671048,-0.08737678
0.041761916,0.054773025,0.052930098,0.4935807,0.04843695,-1.4811167,0.50354713,-0.019281648
0.011593139,0.011608918,0.14284362,-0.4112522,-0.025860554,-0.7024288,-0.23976919,0.051062588
0.02539169,-0.24166818,0.069580376,-0.5792289,0.0020267703,0.8941851,-0.37449694,-0.13255948
-0.020693105,-0.43114415,-0.0131111555,0.41564944,-0.07462059,1.5746088,-0.7491822,0.11589674
0.11346073,-0.49396443,-0.34937775,-2.3827412,-0.0032790161,-0.18989412,0.13924848,0.041220132
-0.0540079,0.067580946,0.16141324,0.94783175,-0.020727476,0.2289545,0.74257296,-0.13751085
0.15858798,1.4384809,0.30463308,1.1170768,0.18861683,0.77262706,0.68166965,0.40489802
0.108031176,-0.8284502,-0.2857788,-2.5717025,-0.06610636,-1.1907132,-0.45024264,-0.120283
0.01280268,-1.25085,-0.08007409,1.2927183,-0.044509083,-3.7135148,0.18708783,-0.46310204
0.08172201,1.2075086,-0.03361769,-0.7036961,0.01614079,0.89404875,-0.5189354,0.7578111
-0.018073248,-1.3817958,-0.022417706,1.3408062,0.0076178154,-2.1308174,0.1502421,-0.83120763
0.0793706,0.21530433,0.09616907,-0.9762936,-0.04178741,0.27832967,-0.23731418,0.89074016
-0.049811814,0.26399043,-0.37323868,-0.15285307,-0.061950356,-0.11656865,-0.29388914,-0.03513856
-0.04861079,-0.0615082,0.3334602,1.4260402,0.04937033,-0.38100857,0.012329597,-0.43781808
0.16315521,-0.37544262,-0.20787212,-1.0031892,0.07478621,0.012904798,-0.030688955,0.07393442
-0.05576083,1.0231239,0.049315095,0.29911578,0.0013611177,-1.754978,0.01990755,-0.22561076
