0.033189785,-0.26039237,0.24311438,0.09295922,-0.04225952,-0.19060501,-0.047439765,0.0500019
0.041055985,-0.20211764,0.120081246,0.071184,-0.12517606,0.023436591,-0.22604233,-0.08935857
-0.054788586,-0.10961615,-0.0013906233,0.085582525,-0.04785246,0.03818508,-0.16230085,0.10525744
0.014022621,0.056809697,-0.08338674,0.039997946,-0.017158682,0.054448202,-0.1398024,0.10708384
0.120264836,0.010351121,0.004009857,0.041142564,-0.110996895,-0.10221126,-0.15410076,0.074880674
0.052117273,-0.14348055,0.0431298,-0.031820986,0.023733009,0.13414682,-0.21129447,0.022742439
0.056371294,-0.08437626,0.028538093,0.03865414,0.0125384405,0.009706179,-0.17783096,0.18190071
0.1000499,-0.03610576,-0.022590883,-0.03201359,-0.15611807,-0.032647494,-0.079105414,0.085153565
0.07980333,-0.35653758,0.5937772,0.36736646,-0.35450873,-0.13788582,-0.66097546,-0.09755106
0.3643854,-0.50210166,0.46211785,0.12977956,-0.6465768,0.24837664,-0.66975915,0.27224514
0.58949834,-0.50557035,0.55162144,0.089740545,-0.9128373,-0.1486952,-0.47177997,-0.2127147
0.7340666,-0.067922175,-0.23248011,-0.34510723,-0.6899737,-0.35449606,-0.31872118,-0.1431044
0.23080081,-0.18198723,0.11478311,-0.008142111,-0.41148973,0.18548553,-0.42223436,-0.060417406
0.059667137,-0.20353664,-0.053032964,0.06710769,-0.30576313,0.5030755,-0.7476949,0.42550206
0.1558142,-0.27124652,0.16990101,0.17840832,-0.30788493,0.74846274,-0.74720955,0.2430473
0.783069,-0.3085278,0.014849427,0.09197068,-1.3178514,1.9167715,-1.2974105,0.45564988
0.51295704,-0.34845904,0.2632974,0.05243783,-0.8427784,1.1199178,-0.6392571,-0.025886318
0.60053176,-0.29883277,-0.08968163,-0.14033195,-0.9670411,0.4961512,-0.56842554,-0.11404652
-0.54841083,-0.11282239,0.077435195,-0.010463423,0.73682225,-0.43334654,0.509888,-0.11323823
-0.5723346,-0.3009661,-0.32792446,-0.13327815,0.6368275,0.014445976,0.53522825,-0.07804651
-0.5904504,-0.10208066,0.003273559,0.04655177,0.7482597,-0.24213293,0.4205611,0.10236097
-0.46780163,0.042028934,-0.25009337,0.064428546,0.6813085,-0.3288212,0.27719527,0.19417919
-0.36055458,0.1755726,-0.3848522,-0.036945913,0.69902796,0.013547292,0.21702386,0.06501336
-0.31261528,0.16681139,-0.22208403,0.08632548,0.5003633,-0.18043904,0.3343006,-0.106264666
-0.46626824,0.009783278,-0.16765594,0.1981324,0.4731541,-0.16947342,0.3230708,0.11357721
-0.41498142,0.030740356,-0.11850162,0.26154348,0.67300415,0.06639004,0.30032235,0.101183146
-0.50838315,-0.009532267,-0.4854559,0.21214046,0.946359,-0.5896845,0.16984162,-0.3420908
-0.22563888,-0.08869291,-0.36058608,0.26332483,0.63816744,-0.6325915,1.4131969,-0.14348957
-0.52662176,-0.03547125,-0.14777751,0.2598702,0.97124106,-0.38995278,1.9931792,0.14012931
-0.4197694,0.28057736,-0.36005273,0.35837477,0.49265617,-0.70922166,1.0945845,0.042226534
-0.21888168,0.042550955,-0.24164458,0.18991739,0.56676674,0.34538725,1.1757251,0.5976752
-0.30285743,-0.18829188,-0.0735161,-0.09249777,0.6424038,1.1523759,0.3003885,0.4541051
-0.10743769,-0.073271014,0.0076526203,-0.03595956,0.3042681,0.31779295,0.38624603,-0.04682864
-0.033777677,0.29528797,-0.2174984,0.08507566,-0.036953885,-0.46265423,0.43905053,-0.19513167
-0.07190415,0.6109785,-0.3201592,0.19131668,0.6808215,-0.10662674,0.12557173,0.21833758
-0.69228446,0.35605496,0.18768983,0.3946448,1.150478,-1.1541802,0.4429105,-0.117212065
-2.129972,2.1667295,3.9654543,-2.255186,2.3596327,-2.744425,2.1028829,-2.7290003
-2.3399925,2.3186073,4.4623656,-2.0740268,2.151716,-3.08992,2.2232058,-2.1565683
-2.25569,1.9777814,3.9361537,-1.7947333,2.3462667,-2.803032,2.059714,-2.4944172
-2.0965893,1.8587735,3.8701081,-1.8575125,2.526775,-2.4836001,2.3702674,-2.678412
-1.8738581,2.1982822,3.6320546,-1.5631365,2.2229085,-2.516463,2.1621976,-3.054997
-2.0422335,2.0651777,3.9423478,-1.9804348,2.1640415,-2.5855465,1.990266,-2.9297743
-2.1543455,2.1678667,4.242162,-1.9127434,2.249046,-2.7091415,1.7406965,-2.49565
-2.5572996,2.4027596,4.5185313,-2.1837103,1.6819649,-2.5334918,1.5048729,-2.470087
-4.258278,4.4582562,5.7233033,-3.8791375,0.096796535,-3.6125932,-0.26270005,-0.8311873
-4.495609,4.865052,4.8900723,-4.3363557,-0.7319814,-3.2178826,-0.5529393,-2.6620178
-4.6867986,4.777608,3.6251273,-3.9304733,-1.6181153,-2.9853654,-1.0639043,-3.891061
-3.9950473,3.304042,1.7979859,-2.655302,-1.055638,-2.6775827,-1.5277182,-4.477386
-3.402351,2.6164808,1.4312803,-1.8974959,-0.9197297,-2.1846576,-1.6562502,-3.7815256
-2.199371,1.2103847,0.71815217,-0.78506404,0.17083453,-1.2072732,-0.9575753,-3.4711068
-1.4338455,0.38006946,0.5167064,-0.63810104,0.7152428,-1.0061854,-0.5383679,-2.1764576
-1.7467208,0.27526012,0.27181798,-0.49425012,0.7292075,-0.7687738,-0.3062282,-2.1840262
-1.8707216,0.24150504,0.3817919,-0.49368623,0.7440077,-1.2030929,-0.27325597,-2.2479267
-1.5925367,0.61387116,0.71889174,-0.7974039,1.260317,-1.2367696,0.06833349,-2.5158336
-0.05343981,0.16834064,0.53360516,-0.5597956,1.004705,0.40763196,1.0798732,-0.7424346
-0.23751849,0.5307844,0.34647834,-0.2662507,0.6547523,0.65890425,0.91838086,-0.34895268
-0.23597947,0.6728603,0.39473632,-0.6702493,0.7703767,0.4480037,0.8077917,-0.09501495
-0.26756898,0.62934965,0.6321376,-0.6772159,0.65031505,0.32918426,0.81823933,0.046578925
-0.4176698,0.61692315,0.53574616,-0.5847116,0.3152525,0.23112689,0.6492993,-0.029210793
-0.3756442,0.6976871,0.61314833,-0.8267691,0.40590847,0.03842566,0.47519544,0.07250737
-0.21417291,0.9475391,0.76571125,-0.9583914,0.49512714,-0.0027396206,0.6495738,0.052987825
-0.11899014,0.6557766,0.84795225,-0.67182195,0.46909952,-0.08743951,0.6712851,0.1941196
0.09376868,0.631201,0.71864504,-0.80427665,0.7405113,0.4746503,0.6496976,0.5349844
-0.21498238,1.0036445,0.95945245,-0.76023406,0.9230027,0.5153207,0.40680104,0.656881
0.4009742,0.44650123,0.46996257,-0.33170593,1.6961713,1.6660483,1.17311,-0.29945
0.15095018,-0.00847924,0.08116497,-0.51980627,1.7339476,1.427989,1.2138373,-0.17318285
0.20590857,0.053781766,-0.06004484,-0.23088545,2.0652585,0.98290676,1.3433334,-0.61238194
-0.23827529,0.43637347,-0.22711863,-0.7996292,1.4545144,0.51157236,1.0238785,-1.0452783
-0.86294824,0.6546991,-0.4451951,-0.32370886,1.328773,-0.15522939,0.34816974,-0.8799895
-1.2526569,0.8595757,-0.3696947,-0.38854924,0.988752,-0.35614344,0.5719891,-0.65183705
-0.81655246,0.92348754,-0.5250727,0.13822915,1.6133547,-0.10555031,0.912791,-1.1490041
-1.6310891,0.85640085,0.06361387,-0.69144773,1.3409694,-0.32743454,0.21124531,-0.4953758
0.22753191,-0.17302912,-0.41224998,0.24282719,-0.08549508,0.08940392,-0.23674336,-0.049515333
0.20046142,0.016466353,0.049774006,0.116214186,-0.40327656,0.055458955,-0.3094674,0.055149756
0.12255933,-0.12961337,0.08340617,0.11405232,-0.35422307,-0.019346248,-0.03439372,-0.1362885
-0.026273202,0.11042464,-0.0847786,0.07372969,-0.0013510945,0.21188432,-0.3059839,0.12584437
0.15351392,-0.0032493218,0.018219322,0.014280479,-0.25137612,-0.056509163,0.11054452,-0.14508986
-0.110754944,-0.041379813,0.064856835,0.024278972,0.104944475,-0.038024407,-0.09078589,0.14712037
-0.06960412,0.1616137,-0.049753048,0.021222636,0.046848066,-0.21598503,0.08750437,-0.12846711
0.15662114,-0.1977353,-0.057239313,-0.32203284,-0.35778308,-0.18961479,0.23281407,-0.25177363
0.3919471,-0.23704077,-0.3252377,0.10535701,-0.20014066,-0.51294655,0.74872386,-0.30742007
-0.53711957,0.51928145,0.10155237,-0.4904292,-0.021727605,-1.8983009,0.71030486,-0.099623606
0.37063152,-0.44850394,0.047834285,0.43387356,0.0046698973,-0.8915751,0.47591212,0.11096375
-0.23613937,-0.3552275,0.32962042,0.15773188,-0.059267357,-1.6421131,0.34085914,0.16416536
-0.24688344,-0.24295464,-0.07765114,0.22052641,0.07633947,-1.0758535,0.796397,-0.7020503
0.07618007,0.37211528,0.24113429,-0.13398898,-0.076850116,-0.6654552,-0.14285512,-0.15882012
0.431741,-0.568805,-0.21402326,0.611147,0.35843536,0.30033368,0.043007173,0.7062419
0.0032332079,-0.5011473,0.6456449,-0.052634317,-0.4481971,0.5458811,-0.60626,1.3429743
0.008566749,0.10434293,0.59392524,-0.32550928,0.18288241,0.23875669,0.14432089,0.049974244
0.29078755,0.12595068,0.47449487,-0.29491562,0.104433686,0.49997905,-0.18042648,0.1794789
0.33507764,0.17149109,-0.23821573,-0.059589494,-0.6039544,-0.29300994,-0.24187058,0.2604248
0.4694101,0.111936666,-0.43872255,-0.019122798,-0.3542491,-0.351751,-0.16693938,0.036704466
0.033087116,-0.06028268,-0.37620062,0.11685406,-0.32101136,-0.3592409,-0.016279697,0.32115883
0.3213406,0.08622453,-0.064335145,0.18365063,-0.35166436,-0.5419519,-0.4573487,0.3632564
-0.03641,-0.08908081,-0.30826452,0.052823048,-0.24569604,-0.19329005,-0.40798822,0.21743898
-0.022080535,-0.19993345,-0.37854812,-0.033502672,-0.3841651,-0.15101655,-0.49707505,0.39239037
-0.014998039,-0.01589233,-0.17537045,0.19599684,-0.028391398,-0.15031731,-0.5132885,0.476802
-0.088175096,-0.21700752,-0.30287814,0.1705304,-0.04518573,-0.16957183,-0.3290728,0.42917517
0.14092755,-0.5980318,-0.59604734,0.3621972,-0.14672211,-0.4816619,-0.5463422,0.41933575
0.37722152,-0.738595,-0.5313716,0.39099276,0.10497472,-0.38954166,-0.72095835,1.1496847
0.101981044,-0.025284857,-0.41890836,0.22278124,0.10730455,-1.0681686,-0.4503417,1.5773476
0.29633617,-0.13055079,-0.41375786,0.37755823,0.28298262,-0.21594715,-0.5446104,1.272795
0.27160892,0.07045142,-0.12302654,0.57770824,-0.16033474,-0.13946779,-0.2597809,1.0443724
0.28586113,0.051220022,-0.10822369,0.22332418,-0.17091566,-0.0044690557,-0.21150741,0.76670283
0.10003572,0.21658577,-0.3049753,0.028694611,-0.1507686,0.5781849,-0.41811877,0.3051405
0.44508636,0.2587019,-0.27037576,-0.2189596,-0.10151726,0.97289616,-0.5831867,-0.17913723
0.40094203,0.18397833,-0.30151972,-0.04395057,-0.31225657,1.0181464,-0.30914494,-0.20521691
0.9653896,0.4376906,-0.20292635,-0.1477792,-0.3642982,0.6398709,-0.23318332,0.19400384
-0.08647251,-0.45492598,0.1431795,-0.09712284,-0.060938694,-0.20818432,-0.07582481,0.046659965
-0.13868223,-0.22324197,0.07851299,-0.018685512,-0.0013290225,0.07112451,0.05458897,0.05630617
-0.102567986,-0.110347115,-0.03388187,-0.05524456,0.079565585,-0.07586878,0.011761896,-0.018321717
-0.0076669347,-0.107038654,-0.053288277,-0.08002374,-0.033527333,-0.020784019,0.026680445,-0.0068186494
0.045286912,0.026005045,-0.09598342,-0.06655886,-0.026228493,0.041760176,0.060019456,0.008614651
-0.05031708,-0.002972114,-0.0943548,-0.032528672,0.06678854,-0.08336679,0.013933305,0.065350674
0.039034236,-0.021417974,-0.012256983,-0.0063468316,-0.10827352,-0.045910645,0.010999977,0.047702227
0.032029845,-0.034439,-0.11871723,-0.13969888,-0.04540126,0.04350089,0.12733547,-0.018989965
0.21101794,0.28725782,-0.000645439,0.024995644,-0.1477543,0.1436895,0.09401053,-0.058646295
0.18089207,-0.21677913,-0.0059403023,-0.07940272,-1.0871634,-0.103056386,0.78064644,0.033022508
0.029983107,-0.32493156,-0.21068367,-0.22141716,-0.90763456,-0.040110763,0.7811315,-0.0047457153
0.099944755,-0.19667839,0.002479908,-0.09678779,-0.24089462,0.012140054,-0.053368427,-0.20239441
0.37768152,0.54960465,0.17696817,0.25900373,0.011194425,0.18711314,-0.55601937,0.10807991
0.060970817,0.6600939,0.3121861,0.26795542,0.44655976,-0.15782563,0.51120406,-0.18647736
-0.06568542,0.17312758,-0.13159534,-0.02737235,-0.29420978,0.1689867,0.61130756,0.056063544
-0.37856025,-0.3554957,0.0030907094,0.08826346,-0.39046738,0.20962161,0.19686282,0.11170005
-0.20830286,-0.23056099,-0.1265096,-0.14376977,0.43750492,-0.32379076,0.16211295,0.15370235
-0.41254798,-0.4428764,-0.3007913,-0.29233137,-0.22577526,0.20915185,0.5723513,0.075314745
