-0.053383492,-0.008096125,0.020593598,-0.015886046,-0.0677616,0.10910643,0.060850266,0.04455466,0.30669147,0.21840161,0.20445944,-0.3490383,-0.06900244,0.33026257,0.42211235,0.45083216,0.62545794,0.17433745,-0.21311921,0.07002387,-0.028050942,-0.11502706,-0.076910555,-0.14645186,-0.20863578,0.13888438,-0.70406765,-0.5155801,-0.68061566,-0.58241385,0.27450666,0.51814926,0.21979669,-0.19048865,0.1425381,-0.7924904,-0.67159307,-0.73926187,-0.60871977,-0.88362193,-0.9891105,-0.875799,-1.1959478,-1.8784376,-4.771741,-4.1716127,-4.2952857,-3.196733,-3.2075787,-1.9617846,-1.2145668,-1.2080256,-0.8963924,-1.3273516,0.012860344,-0.055929843,0.08200096,-0.20817365,-0.0032281417,-0.21091406,-0.42445603,-0.3291128,0.06164457,-0.3678608,0.52950454,0.5375846,0.27574864,0.08321589,0.11688459,-0.21312365,0.502469,0.1137526,0.17529765,0.0005505096,0.043862637,0.0378495,0.04302621,-0.0119683165,-0.13643214,-0.22913821,0.01745508,-0.967965,-0.4882016,-0.8684995,-0.80258137,-0.23896083,0.51428264,0.5921956,0.041763287,0.51507735,-0.28032774,-0.011579054,-0.1925756,0.016134547,0.028555524,-0.19205514,-0.035033464,0.24528672,0.11740871,-0.1478692,-0.545231,-0.11362647,0.3158878,0.36116725,0.5955057,0.3312165,0.62462366,0.47874457,-0.17934215,0.08269343,-0.08099767,-0.03482258,-0.06809462,-0.075313315,-0.050239373,-0.1871505,-0.013876018,-0.04511878,-0.12660351,0.063447244,0.13174678,0.07676213,0.016327063,-0.1272265,-0.0150676435,0.005471474
0.06633466,-0.096462026,-0.10124093,-0.106070906,-0.041608363,-0.06713839,-0.14332952,-0.13365157,0.77419615,0.01366718,0.7836583,2.5691016,-0.1709243,-0.9950883,-0.3083381,0.7862513,1.0881876,1.565403,-1.4462485,-1.078845,-1.0960907,-0.7869057,-0.6237946,-0.86538893,-0.66082937,-0.9974664,-1.7245357,0.3900918,-0.39012265,0.22293493,0.69972324,-1.5145283,1.3422687,1.6233405,2.3685143,-1.1235324,-1.5858569,-1.6193457,-1.7196434,-1.5909724,-1.011398,-0.38586894,-0.33891165,-0.59173226,-2.2924073,-1.599293,-4.475488,-4.023701,-4.029521,-3.1431708,-1.5162724,-1.0954577,-0.9438402,-1.4208351,-0.009068364,0.054794695,0.30504423,0.520676,0.40197122,0.75353485,0.5048994,0.62723064,0.30974248,-0.25328246,0.32258534,0.5714496,0.7927082,0.29461804,0.38548872,-0.02090877,0.16564752,-0.28970656,-0.09483328,-0.13135381,0.07164441,-0.122080825,-0.018860633,-0.3884408,-0.097347386,0.28885862,0.099696815,-0.51323676,0.06426284,-0.8513543,0.13108395,0.33479625,-0.5784608,-0.49925265,0.14741223,0.5649142,-0.012049664,0.008310022,-0.007329823,0.025652146,-0.48651412,-0.5935108,-0.95553607,-0.86467576,-0.007541699,-0.95598984,-0.16494995,0.18594047,0.081370115,0.4475398,0.5715476,0.15045933,0.33801702,0.39286584,0.21742705,-0.11893986,-0.11030431,-0.23366338,-0.9377719,-1.3512383,-2.0683618,-1.7772496,0.13055462,-0.15116698,0.15340638,0.08166229,-0.16601914,1.6815224,0.55299735,-0.72432715,-0.91624254,-0.60634744
-0.19419737,-0.010642632,-0.0152389575,0.04296067,-0.013957529,-0.028551951,-0.034237172,0.013799148,-0.2754883,-0.21992986,-0.33284035,-0.06988608,0.0414087,0.13486749,0.079525396,-0.0888303,-0.22264342,0.01788018,-0.022757322,0.27055383,0.056428637,0.2004509,0.25624174,0.25694206,0.19063169,0.26209143,0.22601134,0.33880934,0.06365693,0.4240382,0.035898518,-0.23267406,0.17553273,0.11019782,0.060757186,-0.069402754,-1.1950105,-2.4051168,-3.237604,-3.5451415,-3.6795263,-4.295033,-4.6873307,-5.2950563,-8.065844,-6.763277,-3.7206354,-1.7782686,-0.8452287,-0.2777986,-0.30564907,-0.040635023,-0.106988765,-0.27701566,-0.43219966,-0.7795221,-0.7558885,-0.7933708,-1.103778,-0.9018694,-1.2430389,-1.342697,-1.6520519,-1.4957725,-0.65655816,-0.15910143,-0.07656145,-0.11351311,0.19716907,0.18937057,0.32728258,-0.028858645,0.10896181,0.15081501,-0.051736254,0.023393905,0.052622754,-0.044842605,-0.14928311,0.017974798,0.033706047,-0.0735597,0.206071,0.14314221,0.19826658,0.09352045,0.04231766,-0.43478277,-0.7030779,-0.27227277,-0.1182432,0.12917812,0.18829797,0.31715742,0.24823694,-0.05172275,0.3616008,0.31910783,0.95413935,0.77743095,0.08232148,0.19993919,0.3204006,0.38392898,0.18420258,0.2578018,0.4007796,0.3129425,-0.08313619,0.0037008112,-0.012598642,0.023224387,-0.03651844,0.04123857,-0.0132164145,-0.108728915,0.07629699,0.05011067,-0.011054501,0.015303916,0.0018040893,0.035348102,-0.00575001,-0.003950808,-0.0015118292,0.07337419
0.002103368,-0.16670354,-0.065363444,-0.12503546,0.031893395,0.0042213933,0.038852412,-0.06844972,-0.108158,-0.21107092,-0.11641538,0.16705072,-0.023646787,-0.27752486,-0.2576002,-0.28771016,-0.51738715,-0.07563237,0.065346286,0.037867267,-0.097360454,0.015578679,0.032446153,0.1326762,0.26707578,0.062277775,0.99707484,0.13841924,-0.32126313,-0.028472995,-0.18098341,0.076934025,-0.43550318,0.14013553,-0.01676903,0.5830973,2.6199892,2.6727517,2.5148509,2.3751924,2.6367142,2.8253162,2.5111566,2.0399866,-0.117202125,1.9741304,3.075165,3.2613895,2.4496045,2.6348767,2.1100812,1.8390497,1.7729154,1.8992413,0.85373926,0.7595387,0.3289606,0.30506885,0.2525202,0.1299351,-0.25799057,-0.22481264,-0.40325102,-0.3062666,1.063134,1.0081699,0.85839367,1.0480206,0.9051967,0.18657263,0.4079561,-0.06927844,0.12975004,0.15874435,0.14295575,-0.05779879,-0.15383165,-0.013601216,0.15505847,0.12161947,0.08848385,-0.18150172,-0.08961585,-0.36569762,0.0056572454,-0.17517373,0.022564387,-0.71640724,-0.6782975,-0.34859204,0.043961596,0.005183373,-0.13193095,-0.033998955,-0.04378172,-0.36377117,-0.25668538,-0.36532712,-0.3792611,-1.2068,-1.5455,-0.8480345,-0.6475771,-0.74207485,-0.14606526,0.02402799,-0.15873098,-0.1543839,-0.0920733,0.0124608325,-0.12844248,-0.10038807,0.0267284,-0.0038715045,0.036114052,0.095231585,-0.21041653,-0.17858708,0.12609182,-0.09202599,-0.18411842,-0.17106703,0.1675731,-0.20058261,-0.1808072,-0.11947077
0.15247372,0.03386163,0.076762214,-0.03140291,0.05476583,0.034030277,0.037657544,0.0046276147,0.13725649,0.22476836,0.521621,0.43402395,0.15135938,-0.06374281,0.034835353,0.23117664,0.7146742,0.48565802,0.24022914,0.14921425,0.26553,-0.030754821,0.043043368,-0.018488757,-0.11150794,-0.06846673,-0.04137416,0.021116085,0.15083164,-0.16535462,0.31486467,0.2888054,0.088761695,0.044521887,-0.2334409,-0.33758456,-1.3172024,-1.5699319,-1.8933588,-1.7772161,-1.9635261,-2.1722744,-2.6339319,-3.0386837,-5.782123,-5.7241507,-5.5909343,-4.2372985,-4.018549,-2.6676965,-1.5325115,-1.0098877,-1.2182016,-1.3029134,0.24354641,-0.1442515,-0.3444057,-0.12454773,-0.40746483,-0.76895136,-0.72713935,-0.43463847,-0.9300322,-1.5341381,-0.6654607,-0.68731797,-0.5504781,-0.7222202,-0.5685351,-0.9330475,-0.7167642,-0.5830268,0.2385813,-0.06670027,0.02757391,-0.046888784,0.01584899,-0.1284373,0.08139144,0.09400116,0.4795146,-0.09918358,0.3793927,-0.013122371,0.0629643,0.003868685,0.3835768,-0.031847708,0.04689176,-0.111459814,-0.041978084,-0.0774868,0.011744702,-0.17090394,0.06931333,0.21592543,-0.0029647418,0.022003246,0.35578904,0.53264856,0.38691232,0.5169991,0.4555394,0.11966024,-0.001374559,0.03235927,0.2175186,-0.087433085,0.16315335,0.01639354,0.092934825,0.059455305,0.059695806,-0.0884813,0.0061260452,-0.017920839,-0.07132018,0.075194314,0.09146215,-0.010460565,-0.27178356,-0.46663103,-0.048886564,0.049076654,0.011803219,0.077150576
-0.6121066,-0.15271264,-0.13663211,0.040623482,0.12562622,-0.06723339,0.031882975,0.064138606,-0.22458684,-0.45276114,-0.43899804,0.24816132,0.25508788,0.073049136,-0.21977715,-0.2202701,0.5086772,1.0844868,-0.3712202,-0.11896433,-0.21249828,-0.09824856,-0.07716459,0.13813458,-0.17769489,-0.20114689,-0.8154766,-0.09704551,-0.17192638,0.09083147,0.2845891,-0.20954019,0.30033767,0.26158467,0.3264622,0.28321496,1.4074535,1.5747389,1.7631733,1.769114,1.9071095,2.1307352,2.2426116,2.781989,5.1732926,4.9748373,3.2735465,1.2538898,-0.6757158,-1.7715544,-0.77179277,-0.42941114,-0.38625023,0.26817048,0.060275067,0.235499,0.6170405,0.38726097,0.52691305,0.77780527,1.0485299,0.85573035,1.5228261,1.1318395,0.65031123,0.32434002,-0.0038130875,0.43097204,0.42078474,1.0234486,0.4035191,0.09717523,0.24798869,0.07244474,-0.17692094,-0.09686689,0.22297364,0.13554467,0.082196824,0.5427636,0.64985806,0.8764311,-0.39981276,-0.70269185,-0.57059515,-0.27178615,-0.87555045,-1.238029,0.19948335,-0.531713,-0.13708833,0.0725302,-0.16153133,0.053076055,-0.052083623,-0.21402383,-0.06322445,-0.062143117,-0.06244469,-0.32221216,-0.42321405,-0.4512354,0.45851818,0.36677787,-0.011339021,0.4180332,0.39396912,0.64152193,-0.09945184,-0.034951437,-0.050517347,0.029513925,0.036626775,0.023950838,0.032865126,-0.010454626,0.44657573,0.24417016,-0.15107208,0.04030573,-0.015785648,-0.13795693,0.115042485,-0.06920551,-0.054624885,0.29123512
-0.08504468,0.0015609723,-0.14869736,0.07857111,-0.0315892,-0.11736352,-0.08231615,-0.08784981,-0.42187485,-0.32683516,-0.56609696,-0.17684774,-0.12205546,-0.22319509,-0.4220223,-0.66085684,-0.86828345,-0.512175,-0.24107581,-0.07167856,-0.034142334,0.1437512,-0.1740449,0.04270971,0.28788587,0.124831624,0.6164201,0.9342939,1.009606,0.4398861,0.23238705,-0.26840094,0.059416123,0.12386274,0.16282547,0.76257104,2.919185,2.5854483,2.4732733,2.7896578,2.6734421,2.5866542,2.3787873,2.0342727,-0.41171226,0.30617642,0.046386205,-0.3990823,-0.90213895,-0.72095215,-0.031274237,0.10076732,-0.2724677,-0.2358875,0.96100193,0.9899339,0.7012772,0.70740044,0.41462764,0.28763357,0.30859223,0.35949203,0.38797522,-0.47731724,0.42493868,0.50598776,0.5894442,0.37240735,0.5277119,0.12027817,0.3670284,0.059028346,-0.09698958,-0.18472537,0.085813016,-0.06417455,0.13873383,0.1382728,0.0006623913,-0.06717657,0.15585595,0.16855803,0.1374536,0.43335417,0.40124092,-0.020155054,0.048377227,-0.2822548,0.30709445,0.10988911,0.07867383,0.22234122,0.13727294,-0.04235161,-0.31328633,0.052830685,-0.25945434,-0.2362074,-0.47176197,-0.6030452,-0.7366952,-0.41080853,-0.35618678,-0.23230217,-0.24470921,-0.3517977,-0.11009583,-0.23795572,-0.019636724,-0.08656826,-0.033969834,-0.04224289,0.04436436,0.18786755,0.055273447,0.22735934,0.27393955,0.076321796,-0.094015986,-0.063144594,0.2439802,0.5613143,0.12316817,0.11543769,0.16300699,-0.058951374
-0.0092991525,-0.037573826,-0.004499113,-0.004177502,0.024380904,0.031296127,0.0771893,0.039387062,0.94881505,0.36195695,0.10304293,-0.4602521,-0.060908776,-0.100268945,-0.030274762,0.5492396,0.6534493,0.32850865,-0.5830294,-0.4377129,-0.14163786,0.064122915,0.11397956,0.15814562,0.043122567,0.15679117,0.5206921,0.44226274,0.39367685,0.7912364,-0.0065871435,-0.16593786,-0.08726721,-0.11245651,0.5991913,0.5472643,0.9223753,0.41934022,0.22478604,-0.012718443,-0.20966938,-0.08175529,-0.1905031,-0.8352098,-3.9499853,-3.287323,-2.452796,-1.4878932,-1.4742886,-1.1304969,-1.2703972,-1.0046356,-0.58215874,-0.4070965,-0.35184386,-0.8165293,-0.73119926,-1.1074501,-1.0235889,-1.1419944,-0.8306939,-0.8791358,-1.2958673,-1.812533,-0.86633265,-0.6296155,-0.4175886,-0.31610966,-0.023491995,-0.19287193,0.23572268,0.06492923,0.039006922,0.17950104,-0.17545815,-0.00981523,-0.10213049,0.13373004,0.0842393,-0.32605457,0.026022654,-0.20980854,0.41148052,0.22354889,0.20731662,0.05282528,-0.16822724,-0.9200451,-1.2870593,-0.9508701,-0.29084712,-0.054272436,-0.24893151,-0.108475894,-0.18383646,-0.18430911,-0.081595555,0.072834365,0.65599126,0.5978634,0.16217759,0.19417812,-0.0738058,0.13119681,-0.28958943,-0.65286434,-0.4619266,-0.60771465,-0.042858716,-0.0777752,-0.115036935,-0.10979232,-0.04261257,-0.044040583,0.030763756,0.16376488,0.10090152,-0.14757179,-0.19229296,0.21489382,0.36339656,0.56612325,-0.25235108,0.069541104,-0.10921218,-0.3680309
