0.040996887,-0.11622731,-0.09038741,-0.2586148,0.22198899,0.05427064,0.14474387,0.092238545
-0.15585831,-0.043865588,-0.008023513,-0.36893135,0.14421596,-0.1149025,0.07401517,-0.29680178
-0.1724536,-0.016349988,0.060913548,-0.19722585,0.030570244,-0.2065299,0.004399435,-0.3330606
-0.058388516,0.011761409,0.09765496,0.029435165,-0.061358932,-0.09471852,-0.08337729,-0.16254857
0.026952662,-0.017673453,0.09385658,-0.012884436,-0.009434428,0.040796004,-0.15021503,-0.019244976
0.30290747,-0.072480015,-0.08165583,-0.04148023,0.036073778,-0.28527644,0.07396251,0.30575457
0.018646842,-0.06450468,0.09414711,0.033139516,-0.0011996309,-0.22150154,-0.025885642,0.1000586
0.05358878,0.11004966,0.020023825,0.22145084,-0.03836455,-0.03453651,0.04298044,0.10800646
-0.54933405,0.043008722,0.28941655,-0.036871254,0.14571074,-0.32468066,0.118351094,0.008824798
-0.029491512,-0.09712608,0.0073543093,0.014487868,0.08369813,-0.826403,0.34244162,0.6348621
0.42703763,0.16334939,-0.2543747,-0.21284765,0.42790678,-0.024621224,0.34081957,0.063781
0.4644987,-0.16559258,-0.08317675,-0.3599078,0.07396715,-0.24874204,-0.1619155,0.7502632
0.13164167,0.04117659,0.022402275,-0.1287004,-0.084509775,-0.44579312,-0.14136632,-0.47617313
0.0387166,-0.15806442,0.0143434005,-0.15416978,-0.11535177,-0.58167183,-0.17786099,-1.2777575
-0.25349957,0.09504545,0.029012209,-0.09870814,-0.08823532,-0.40233806,0.09282922,-0.27998507
0.061505407,-0.23554748,-0.059778173,-0.27434492,0.15321347,-0.5065143,0.16275243,-0.48231512
0.19226924,0.31024754,0.05504081,0.119077176,0.30150867,-0.14076202,0.20203291,-0.7716656
-0.00965004,-0.16439937,0.16832957,-0.20102498,0.14659898,-0.21077201,-0.0139171295,0.6299317
0.0619255,0.029556956,-0.14867057,0.38921425,0.20811465,0.7583949,0.27490973,-0.23899932
-0.0027905446,-0.1356528,0.042769805,0.2995303,0.14768223,0.18930385,0.41335613,-0.050098803
0.10406722,-0.14816682,-0.04051297,0.10029104,0.0009357373,0.2938838,0.16490503,0.34402943
-0.072948195,-0.14218056,0.043884043,0.13535279,-0.024089871,0.53608483,0.18122454,0.41721708
-0.15807149,-0.08586763,0.08516826,-0.13085872,-0.22583789,0.07517353,0.071611814,0.16849999
0.07792604,0.020437911,0.19028428,-0.2366535,-0.09598394,0.09837377,-0.110550776,0.2644541
-0.01913388,-0.12687902,0.1706084,0.12663871,-0.0538461,0.28087595,0.13525052,-0.10585976
0.032616504,-0.22860375,0.18073851,0.13819288,-0.4866773,0.016077671,0.058568455,-0.40944773
-0.12077247,0.1915386,0.46038797,-0.045791164,-0.30519137,0.10955126,0.26571134,0.5194294
0.03150191,-0.03735534,0.28773576,0.21718547,-0.19301341,0.6171484,0.3142827,0.6182279
-0.3721955,-0.20435692,0.39819372,0.4526484,0.027722161,0.61827254,0.38136998,0.33445212
-0.20644142,0.08538469,0.3114586,0.066272564,-0.009947134,0.65477735,-0.05891875,0.5323884
-0.2186077,-0.26775497,0.28336164,0.18855761,-0.0244012,0.07871168,-0.06643382,-0.46532613
0.043371208,0.03388094,0.12846343,0.36389938,-0.19483043,-0.45870423,0.08326564,-1.3121766
-0.05540461,0.13395345,0.062692955,0.020793227,0.11544381,0.25672737,0.02728608,-0.6660567
0.095355056,-0.015210562,-0.021637045,-0.24041311,0.077606246,-0.011087203,-0.14121668,-0.60707456
0.028086415,-0.57673687,0.16215602,-0.027739832,-0.16757128,-0.22150992,-0.23381092,0.5348615
0.32111484,0.11488672,0.19450374,0.3078844,-0.21593842,0.45709538,-0.46990803,1.2430553
-0.33243832,4.049937,-2.8883545,2.238746,2.791671,1.571834,-1.829945,1.8144993
-0.5620342,4.215196,-2.7039392,2.1650603,2.6704626,1.4098579,-2.1155155,2.1591163
-0.5818363,4.137242,-2.842463,2.0810847,2.6423776,1.7179357,-1.9242154,2.1437986
-0.34863025,4.0795727,-2.6460028,1.7532116,2.5389593,1.8660251,-2.0704634,1.5807762
-0.25184438,4.157951,-2.7205746,1.9845945,2.5674067,1.6587082,-1.936277,1.891928
-0.7026387,4.210854,-2.861737,1.9331126,2.5926538,1.3277446,-1.9453181,1.9806278
-0.686431,4.3063307,-2.9133675,2.178429,2.8412743,1.1685706,-2.3645282,2.0441108
-1.0318007,4.5445294,-3.1521192,2.2803907,2.9107604,1.1644254,-2.4051628,2.2051368
-2.5598898,5.183119,-4.419997,4.017272,4.044023,-0.8721637,-3.7498643,3.1340814
-2.0419054,5.8795977,-3.760599,3.8987978,3.7981365,-0.95649356,-3.8371677,2.291307
-1.2987915,5.85168,-2.84769,3.1521246,2.6440253,-0.8698939,-2.823108,1.8320545
-0.48832813,4.822752,-1.4657885,1.3770727,1.2720366,0.15698738,-1.7715408,0.95771
-0.49392056,4.03161,-0.9435984,0.60587406,0.9944294,0.11933573,-1.3046776,0.5165343
-0.68377733,2.5970821,-0.2979611,-0.14780715,0.40766984,0.4150138,-0.5007552,-0.08339996
-0.8123165,0.92354,-0.29973036,-0.32734612,0.34987205,0.92285347,-0.33917695,0.1953461
-0.7998645,0.9627735,-0.08698468,-0.10693924,0.516168,0.86889577,-0.19625449,0.6983583
-0.47939554,1.0722643,0.059389498,-0.20902628,0.44899318,0.83957875,-0.19424601,0.4890111
-0.31528592,0.7935997,-0.03338426,-0.37615034,0.6953004,0.92014587,-0.36292702,0.9678576
0.059464976,-0.19061567,-0.41430482,-0.169446,0.13275129,0.85721654,-0.08051393,-0.4777643
0.31875595,-0.03002236,-0.3029247,0.21440572,0.37385857,0.41947794,-0.28463405,-0.59270626
0.0049731457,0.14359967,-0.20728467,0.09086448,0.24137464,0.5207159,-0.43857747,-0.52544916
-0.26290283,-0.08273783,-0.6208714,0.13505092,0.42728373,0.15589063,-0.4731765,-0.080827236
0.00067878683,-0.09364104,-0.57566035,0.12596157,0.41719112,0.18245353,-0.6561643,-0.11834799
-0.28197852,0.30578235,-0.57257587,0.3658333,0.68513584,0.094735324,-0.71624714,-0.0062090103
-0.081865504,-0.08297748,-0.72613394,0.3608209,0.5480075,0.18674421,-0.69623125,0.0035470077
-0.22300597,0.026599953,-0.7583092,0.6781728,0.7400995,-0.25919932,-0.76558495,0.22535491
-0.10374152,-0.27044284,-0.3550222,0.85913914,0.2681402,-0.11576125,-0.5454075,-0.5614552
-0.20721382,0.2616566,-0.7692259,1.1070743,0.82987773,-0.4844553,-0.76871955,-0.19496694
0.21729961,0.33930355,-0.5027095,0.67121434,0.3934726,-0.08939845,-0.6422761,-0.83787143
0.05447067,0.8657125,-0.24054503,0.63400656,0.4479724,0.046603978,-0.27033442,-0.5631141
0.5154543,0.38996848,0.03737206,0.35061806,0.022410274,0.63965815,0.16931467,-0.28826967
0.5201669,0.9400793,-0.036505383,0.23170444,0.19095427,0.29709783,-0.12739193,0.3658448
0.19562846,0.46190172,0.029648032,0.14678031,0.14840364,0.52347094,-0.19280773,0.24840416
0.29164514,0.30754527,0.06505361,0.45094073,0.004994455,0.7937586,-0.61885196,0.047011457
0.3350887,0.473465,0.26915756,0.16160344,0.19091791,1.1997557,-0.2728922,0.03335825
-0.17963158,0.552502,0.13399404,0.27201462,0.53226584,0.9507055,-0.19740023,-0.01675246
0.44569817,0.031233074,0.2613214,-0.35191315,0.17830448,-0.42719364,0.122241326,0.27291924
0.15261804,0.08051829,0.15983981,-0.23331362,0.12422563,-0.4048917,-0.08943068,0.008290783
-0.073714085,0.041499034,-0.02339312,-0.27670234,0.032671105,-0.1646906,0.102878205,0.13860194
-0.16721374,-0.060580876,-0.04720514,0.040622603,-0.016299447,0.09216417,0.09041201,0.08848871
-0.15363969,-0.017967355,-0.039220177,0.12912986,-0.01837886,0.3007207,0.113087974,-0.037772458
-0.051344573,0.11218267,0.07392538,0.025585316,0.110814616,-0.013369289,-0.015684258,0.27233618
0.09148887,0.044339776,0.026432488,0.17948346,0.00386536,0.18530735,-0.12157405,-0.06344767
0.33782202,0.20811854,0.24752289,0.42687395,0.17903624,-0.22997533,-0.23708874,-0.12241818
0.91624445,-0.6297005,0.15778218,0.03473931,0.18211608,-0.097438365,-0.12102282,0.60127085
0.011975448,0.23808333,-0.55021197,0.18463337,0.47038683,0.25087777,-0.5788246,0.8448796
0.072381385,-0.36103693,0.15583462,-0.2735265,-0.15434404,0.04976696,0.49190712,0.93184364
-0.333036,0.12077585,-0.08434672,0.2161962,-0.09784802,0.5811677,0.18256733,0.76689035
0.11455199,0.34370387,-0.18743758,-0.51001054,-0.26575655,0.81201655,0.28366983,0.24784304
-0.09888917,0.14606665,-0.28396046,-0.1859165,-0.17720547,0.7805054,-0.3480678,1.125272
-0.38957277,-1.0454878,0.23494041,-0.22451742,-0.6476754,0.2364517,0.48206824,-0.49992284
-0.5515198,-0.4152976,-0.48850155,0.16535418,-0.17984848,-0.84135133,0.25220665,-0.07554794
-0.26876894,-0.1609004,-0.29972464,0.07600528,0.10855888,0.013617572,-0.07844943,-0.33283678
-0.43691853,-0.5181964,-0.38168532,-0.1654449,-0.15760715,0.22243828,-0.16325453,-0.96343625
-0.3066646,-0.15509197,0.19438884,-0.18832986,-0.21614394,-0.6058627,-0.28403506,0.060250595
-0.072146855,-0.015365122,0.30115676,0.056884088,-0.39528152,-0.25929868,-0.13087481,0.04392131
-0.1208503,-0.12969029,0.17446479,0.02819236,-0.19979332,-0.23321408,-0.090765394,0.39069992
-0.16062577,-0.14177348,0.20334801,0.19847296,-0.2655531,-0.4087658,-0.056723863,0.41922522
-0.26534685,-0.15988243,-0.060248215,-0.08767029,-0.3226871,-0.59274125,0.18833059,0.3722384
-0.276341,-0.30689803,0.17795566,-0.058698382,-0.15195332,-0.58990973,-0.035531487,0.29922506
0.0007619078,-0.21033043,0.1794649,-0.030646779,-0.067579985,-0.61142236,0.06324077,0.185136
-0.008243863,-0.2187359,0.235804,0.18779507,-0.33605364,-0.27007103,-0.008675594,-0.11444596
0.031399637,-0.09033903,0.24383278,-0.49161726,-0.30467865,-0.1180143,0.2630537,0.21009052
-0.21456839,-0.8642671,0.22139433,-0.26109338,-0.21018037,-0.32535067,0.3410173,0.20232823
-0.2545021,-0.43182173,-0.060396478,-0.44037658,-0.08198948,-0.32346812,0.024256093,0.80709344
-0.34935138,-0.7483511,0.23005837,-0.59180665,-0.21683893,-0.18312117,-0.19532108,0.7115002
-0.26391983,-0.41328958,0.04017732,-0.2472688,-0.14722635,-0.090050526,-0.09466512,0.6278859
-0.3293837,-0.4318617,0.14835669,-0.46399438,0.16166824,-0.15954061,0.026758673,0.044818785
-0.20628928,-0.3285939,-0.14349423,-0.41893795,-0.103549585,-0.20699146,0.050681498,-0.32603648
-0.15244454,0.005510812,-0.11297619,0.043149415,-0.016900329,-0.2922406,-0.03902177,-0.16040239
0.16071019,-0.61020136,0.047879864,-0.4075715,-0.06790411,-0.20979619,-0.06451003,-0.7664034
0.09318958,-0.85294724,-0.120726354,-0.4125661,0.027813045,0.1369191,-0.06982748,-0.5370146
0.15459055,-0.07872047,0.030165806,0.14625654,0.08408469,0.28655994,-0.03537213,0.33077627
0.007498086,0.183948,0.027453886,0.2565529,-0.05366137,0.08301168,0.09715253,0.47754642
0.016439883,0.18383762,0.02281866,0.21968397,-0.019552186,-0.055904303,0.103608824,0.37241924
0.08012186,-0.16338645,-0.069293335,-0.03497427,-0.059126373,0.18055557,-0.06940386,0.22293122
-0.22963342,0.020469163,0.11727779,0.037669994,-0.04646332,-0.059005976,-0.076250814,-0.17229213
-0.07438789,-0.0784235,-0.029825939,-0.18785931,0.020403314,-0.053002592,-0.042880554,-0.3319234
-0.08216535,0.09812365,0.06353339,0.15194066,-0.065564066,-0.008250023,-0.008742487,-0.028141871
-0.067563675,0.08743787,0.014410403,0.13910414,-0.012034984,0.014550795,0.04299191,0.1325394
0.3195022,-0.11060662,-0.15652013,-0.12844369,0.0876913,0.12516755,-0.036777277,0.48862845
0.30984172,0.08040946,-0.11978098,-0.10981208,-0.063740715,-0.13781066,-0.0650702,-0.20343459
-0.1113257,-0.26843545,-0.3200354,-0.26306343,0.0010575142,0.22917187,0.15077908,0.07189754
-0.15116528,0.023558298,0.20943283,-0.107892334,0.035794012,-0.2010491,-0.14935626,0.2265549
0.07763733,0.08725958,-0.23253088,0.23060676,-0.20112689,0.30597323,0.18311676,-0.16805363
-0.3111667,-0.19453391,-0.19075201,0.050968945,-0.29550388,0.47869435,0.03664979,-0.45727366
0.12802681,-0.03897196,0.104072444,-0.022551585,0.27908885,0.14543329,-0.045491666,-0.21949682
-0.22593391,0.06996691,-0.17974998,-0.1321498,-0.18971547,-0.052667115,0.13602298,-0.4278693
-0.056469537,-0.2053866,-0.07238464,-0.25489601,-0.10941742,-0.39851975,-0.03404186,-0.30705148
0.17994238,0.13946712,0.112127006,-0.006962761,0.25857475,-0.2072023,-0.029337706,-0.23489839
